~o
<STREAMINFO> 1 39
<VECSIZE> 39<NULLD><MFCC_D_A_0><DIAGC>
~h "ba1"
<BEGINHMM>
<NUMSTATES> 5
<STATE> 2
<MEAN> 39
 -4.485088e+00 -7.254655e+00 -1.361181e+01 -1.570989e+01 1.585068e+00 2.152560e+00 -5.697717e+00 -7.323821e+00 -2.884162e+00 -3.613355e+00 -4.739807e+00 -1.021472e+01 8.033277e+01 9.942424e-01 -1.356295e+00 -1.549974e+00 -9.081689e-01 6.721841e-01 1.549130e+00 -1.107453e+00 -9.165971e-01 4.374377e-01 -2.191382e-01 -4.720736e-01 -1.115333e+00 2.091316e+00 -6.336005e-01 1.664951e-01 5.427984e-01 6.622767e-01 1.284365e-01 -2.835177e-01 -9.955116e-02 1.446663e-01 1.450899e-01 -1.900022e-01 2.117000e-01 2.581321e-01 -1.054082e+00
<VARIANCE> 39
 7.582191e+00 2.941250e+01 1.855763e+01 4.708045e+01 6.146091e+00 1.762350e+01 4.516078e+01 5.099687e+01 3.679033e+01 2.348870e+01 3.973990e+01 5.282535e+01 8.989324e+00 3.216016e+00 3.023030e+00 3.888995e+00 6.914967e+00 1.226564e+00 2.820096e+00 5.891386e+00 2.771923e+00 4.463317e+00 2.014611e+00 3.935004e+00 3.893586e+00 5.873197e+00 2.993223e-01 3.353586e-01 3.738646e-01 9.463162e-01 2.514025e-01 4.794067e-01 7.244754e-01 4.793400e-01 4.657534e-01 3.042006e-01 7.624717e-01 7.426936e-01 6.312687e-01
<GCONST> 1.196933e+02
<STATE> 3
<MEAN> 39
 -4.323164e+00 -8.958431e+00 -1.364184e+01 -1.592224e+01 5.688024e+00 3.628775e+00 -6.979949e+00 -1.093082e+01 1.627634e+00 -6.542937e+00 -5.518445e+00 -1.302825e+01 8.225555e+01 -5.449035e-02 4.803493e-03 4.904640e-02 -3.395147e-02 3.299235e-01 -8.442142e-02 -1.118148e-02 1.369652e-01 1.920132e-02 -1.537040e-01 1.242765e-02 -4.584341e-02 -5.569023e-02 1.062603e-02 3.280939e-02 -2.157585e-02 3.969533e-02 -4.326480e-02 -3.194112e-02 5.938073e-02 2.274287e-02 -2.652369e-02 2.374768e-02 -6.444772e-03 1.292270e-02 -3.163699e-02
<VARIANCE> 39
 1.489163e+01 2.155432e+01 5.228413e+00 4.982451e+01 1.763881e+01 9.370874e+00 1.362082e+02 5.928696e+01 5.287423e+01 4.048071e+01 9.392798e+00 1.646275e+01 3.885558e+00 6.544288e-02 1.242502e-01 2.028354e-01 3.559818e-01 3.475156e-01 5.068392e-01 6.230556e-01 7.242928e-01 3.456329e-01 4.417295e-01 4.373650e-01 5.307732e-01 4.493850e-02 9.110406e-03 1.680679e-02 2.936991e-02 5.516582e-02 7.317788e-02 7.729504e-02 1.165794e-01 1.293170e-01 9.535992e-02 9.203278e-02 8.499277e-02 8.605581e-02 5.964181e-03
<GCONST> 5.541297e+01
<STATE> 4
<MEAN> 39
 -5.671208e+00 -7.078485e+00 -1.363059e+01 -1.106605e+01 7.785882e+00 -1.688899e-01 -1.023930e+01 -6.046093e+00 -3.458470e+00 -8.373119e+00 -6.794720e+00 -1.190895e+01 7.562798e+01 -4.009960e-01 4.782501e-01 1.193585e-01 9.040426e-01 -3.301310e-01 -1.672066e-02 2.626122e-01 1.132466e-01 -7.086159e-02 2.223877e-01 -2.149110e-01 2.719220e-01 -1.441082e+00 -1.544177e-01 -4.660149e-03 7.316719e-02 6.643119e-03 -1.968769e-02 8.159419e-02 1.336042e-01 8.307561e-02 1.463672e-01 7.490226e-02 7.048926e-02 1.242772e-01 -1.424154e-01
<VARIANCE> 39
 9.976721e+00 3.844862e+01 1.821281e+01 4.940083e+01 2.138962e+01 2.808248e+01 1.797703e+02 4.464483e+01 9.026270e+01 2.002168e+01 4.958150e+01 2.559357e+01 2.839293e+01 8.806622e-01 9.021454e-01 1.621489e+00 1.521355e+00 1.226362e+00 1.106918e+00 1.617046e+00 2.636959e+00 3.401008e+00 9.114355e-01 1.864413e+00 1.470529e+00 1.540933e+00 9.199516e-02 1.378661e-01 3.985933e-01 3.456852e-01 1.668620e-01 1.644414e-01 1.723853e-01 4.167238e-01 4.232287e-01 1.606473e-01 4.219443e-01 2.540250e-01 1.136456e-01
<GCONST> 1.031351e+02
<TRANSP> 5
 0.000000e+00 1.000000e+00 0.000000e+00 0.000000e+00 0.000000e+00
 0.000000e+00 7.819338e-01 2.180661e-01 0.000000e+00 0.000000e+00
 0.000000e+00 0.000000e+00 9.477136e-01 5.228646e-02 0.000000e+00
 0.000000e+00 0.000000e+00 0.000000e+00 9.158887e-01 8.411130e-02
 0.000000e+00 0.000000e+00 0.000000e+00 0.000000e+00 0.000000e+00
<ENDHMM>
~o
<STREAMINFO> 1 39
<VECSIZE> 39<NULLD><MFCC_D_A_0><DIAGC>
~h "er4"
<BEGINHMM>
<NUMSTATES> 5
<STATE> 2
<MEAN> 39
 -9.571274e+00 -1.627328e+01 -1.238814e+01 -9.082011e+00 -1.138332e+00 -5.891406e+00 -6.826535e+00 -6.214001e+00 -7.884144e+00 -9.049274e+00 -1.025552e+01 -6.284740e+00 8.109048e+01 1.211019e+00 -1.039792e+00 -1.320642e+00 -7.460083e-01 -6.485382e-01 -2.598936e-01 -1.079701e+00 -4.709265e-01 -9.222766e-01 -8.461437e-01 -6.518813e-01 -5.115694e-01 2.905840e+00 -2.518651e-01 9.470444e-01 3.510203e-01 6.491305e-01 3.673841e-02 2.285578e-01 1.024674e-01 2.769488e-01 3.424127e-01 1.969127e-01 4.553592e-01 3.273472e-01 -1.342766e+00
<VARIANCE> 39
 1.247103e+01 1.126721e+01 2.096202e+01 3.940595e+01 8.691125e+01 1.959047e+01 3.704778e+01 6.576058e+01 4.328188e+01 3.245208e+01 2.919978e+01 9.370638e+00 2.084432e+01 1.365291e+00 4.063207e+00 1.649640e+00 3.033210e+00 4.353168e+00 1.468783e+00 3.541179e+00 1.593706e+00 3.446282e+00 1.619203e+00 1.641432e+00 7.407093e-01 7.606022e+00 2.330428e-01 4.235225e-01 3.017197e-01 2.112047e-01 5.887730e-01 9.743646e-02 9.641474e-01 2.406154e-01 3.518300e-01 2.911879e-01 3.363706e-01 9.310824e-02 4.520742e-01
<GCONST> 1.094025e+02
<STATE> 3
<MEAN> 39
 -4.160125e+00 -1.416950e+01 -1.436286e+01 -7.096441e+00 -4.540956e+00 -6.544739e+00 -4.570262e+00 -6.548517e+00 -4.870705e+00 -1.221823e+01 -8.102943e+00 -6.003561e+00 8.102699e+01 1.357468e-01 1.644710e-02 1.441404e-02 2.790424e-01 -1.946028e-01 -1.158892e-01 4.028141e-01 1.802356e-01 1.022534e-01 -5.790383e-02 1.577397e-01 1.833822e-01 -2.261493e-01 -3.537748e-02 1.845658e-04 3.679273e-02 -1.998553e-02 -9.983076e-03 -2.807946e-02 1.620310e-02 3.678270e-02 -2.897960e-02 1.686055e-02 7.271192e-03 1.710026e-03 -3.259065e-02
<VARIANCE> 39
 1.168032e+01 1.381694e+01 3.174469e+01 3.739802e+01 7.573457e+01 2.365571e+01 1.919954e+01 5.614447e+01 3.760070e+01 1.282723e+01 1.519339e+01 1.554750e+01 2.769590e+00 1.509450e-01 2.201287e-01 3.823740e-01 4.718134e-01 8.882895e-01 5.667665e-01 8.359104e-01 1.064973e+00 7.027572e-01 8.045692e-01 6.859148e-01 8.006245e-01 7.178324e-02 2.631049e-02 3.959884e-02 5.549889e-02 8.424655e-02 1.221194e-01 1.134333e-01 1.210541e-01 1.590373e-01 1.197579e-01 1.144200e-01 1.140282e-01 1.368348e-01 1.358459e-02
<GCONST> 6.804209e+01
<STATE> 4
<MEAN> 39
 -6.963422e+00 -1.031105e+01 -8.988334e+00 -3.210151e-01 -6.726856e+00 -6.201950e+00 2.468239e-01 1.125450e+00 -5.605571e+00 -1.359914e+01 -5.783054e+00 -2.121682e+00 7.137446e+01 -8.382674e-01 3.976843e-01 9.065400e-01 3.939481e-01 3.967500e-01 4.577748e-01 2.325554e-01 4.033857e-01 8.668263e-02 -1.439427e-01 3.087008e-01 2.116838e-01 -1.149485e+00 -1.439245e-01 -4.651175e-03 1.117191e-01 7.659615e-02 9.996688e-02 1.086735e-01 4.875798e-02 -1.184230e-01 8.842506e-02 6.762099e-02 3.851827e-02 -2.085539e-02 -4.885471e-02
<VARIANCE> 39
 1.922299e+01 1.832263e+01 5.619798e+01 3.614046e+01 3.777245e+01 4.049901e+01 2.766773e+01 2.591541e+01 4.913068e+01 2.664906e+01 1.570632e+01 2.373601e+01 2.729975e+01 1.196108e+00 1.519907e+00 1.670005e+00 1.158191e+00 1.371174e+00 1.526692e+00 1.185790e+00 1.968373e+00 2.014360e+00 1.370538e+00 1.032080e+00 2.041505e+00 8.627054e-01 1.763099e-01 2.428585e-01 2.213571e-01 1.748244e-01 1.258777e-01 2.007782e-01 2.397469e-01 2.919354e-01 4.005972e-01 2.420384e-01 1.405390e-01 4.006310e-01 1.544312e-01
<GCONST> 1.001092e+02
<TRANSP> 5
 0.000000e+00 1.000000e+00 0.000000e+00 0.000000e+00 0.000000e+00
 0.000000e+00 7.831479e-01 2.168521e-01 0.000000e+00 0.000000e+00
 0.000000e+00 0.000000e+00 9.571095e-01 4.289057e-02 0.000000e+00
 0.000000e+00 0.000000e+00 0.000000e+00 9.143349e-01 8.566517e-02
 0.000000e+00 0.000000e+00 0.000000e+00 0.000000e+00 0.000000e+00
<ENDHMM>
~o
<STREAMINFO> 1 39
<VECSIZE> 39<NULLD><MFCC_D_A_0><DIAGC>
~h "jiu3"
<BEGINHMM>
<NUMSTATES> 5
<STATE> 2
<MEAN> 39
 -1.620009e+01 7.935011e-01 2.974552e+00 -8.989924e+00 -7.004867e+00 -7.353646e+00 -7.034906e+00 -4.921762e+00 -3.039450e+00 -2.819484e+00 -3.811205e+00 -2.611037e+00 7.862364e+01 1.069596e+00 -2.558049e-02 -3.596001e-01 -1.586869e-03 -5.271137e-01 2.731209e-01 -5.812335e-01 -2.591314e-01 1.875087e-01 2.797339e-01 -2.494550e-01 -4.495236e-01 4.517674e-01 1.158895e-01 -1.389163e-02 -4.612844e-02 2.510845e-02 -5.894231e-02 2.097611e-01 6.788961e-03 -6.945965e-02 -4.148105e-02 2.182260e-02 9.332794e-02 -8.036220e-03 -1.597549e-01
<VARIANCE> 39
 1.237475e+02 1.259852e+01 7.501782e+01 5.118303e+01 8.521454e+01 3.775160e+01 3.711554e+01 3.377834e+01 5.228261e+01 2.788881e+01 4.144872e+01 2.894107e+01 8.253971e+00 4.490533e+00 1.328272e+00 7.175004e+00 2.689188e+00 6.197705e+00 3.873779e+00 1.567131e+00 3.332979e+00 4.579235e+00 3.475465e+00 2.653976e+00 2.644078e+00 8.625165e-01 6.650754e-01 2.139129e-01 7.920821e-01 4.422059e-01 9.484710e-01 4.049894e-01 3.124324e-01 5.879460e-01 7.580826e-01 6.480182e-01 5.940799e-01 5.663888e-01 1.635232e-01
<GCONST> 1.238613e+02
<STATE> 3
<MEAN> 39
 -1.741170e+00 3.189494e-01 -1.452217e+01 -1.760076e+01 -1.055232e+01 5.489254e+00 1.115302e+00 -8.947507e+00 -6.245541e+00 6.834692e+00 -3.941689e+00 -5.412141e+00 7.814393e+01 6.702372e-02 2.186116e-01 -2.385616e-01 -6.065480e-01 -4.785264e-02 4.956508e-01 4.084009e-01 1.088276e-01 -5.592771e-01 -3.533777e-01 1.892166e-01 2.057095e-01 -1.848816e-01 -1.713211e-02 -4.106183e-03 7.839721e-02 6.376150e-02 -1.628071e-02 -1.841772e-01 8.554704e-03 8.152486e-02 -1.142408e-02 -1.102347e-01 -3.072221e-02 7.140470e-02 -2.900320e-02
<VARIANCE> 39
 5.585931e+00 3.992661e+00 1.444810e+01 5.060133e+01 2.551510e+01 1.589934e+01 9.757913e+01 1.314210e+01 3.719494e+01 3.180000e+01 1.054894e+01 1.132492e+01 2.132756e+00 9.357936e-02 1.437707e-01 3.703948e-01 8.957506e-01 6.512910e-01 1.828871e+00 9.405174e-01 9.076068e-01 1.108656e+00 1.260423e+00 8.546443e-01 8.040888e-01 1.235883e-01 1.542357e-02 2.114733e-02 5.465249e-02 1.041069e-01 8.776527e-02 8.762094e-02 1.590727e-01 2.235277e-01 1.691547e-01 2.539890e-01 1.634687e-01 1.283792e-01 1.608383e-02
<GCONST> 6.708524e+01
<STATE> 4
<MEAN> 39
 -5.884123e+00 5.037286e+00 -1.271861e+01 -1.948946e+01 -1.071511e+01 8.196229e+00 -2.400455e+00 -2.762521e-01 -5.370509e+00 -6.453457e+00 5.574480e-01 -2.085940e+00 7.247056e+01 -9.723869e-01 1.540322e-01 7.532138e-01 7.885476e-01 3.392213e-01 -4.012302e-01 1.312841e+00 8.271930e-01 2.897909e-01 -5.674540e-01 2.737058e-01 5.494238e-01 -1.554024e+00 -1.946226e-01 -7.670299e-02 2.122797e-01 4.642776e-01 3.061968e-01 -9.621869e-02 5.277845e-02 -8.349572e-02 1.917509e-01 2.523544e-01 -1.376066e-01 -1.190737e-01 -1.399654e-01
<VARIANCE> 39
 2.436889e+01 2.132483e+01 1.845103e+01 4.636872e+01 3.362107e+01 6.930877e+01 9.376273e+01 3.544519e+01 2.845833e+01 3.109745e+01 1.073218e+01 2.538733e+01 2.969935e+01 1.827315e+00 1.671235e+00 1.825267e+00 5.852171e+00 3.313606e+00 2.391764e+00 4.468935e+00 1.667186e+00 2.046330e+00 3.104042e+00 2.183990e+00 1.882505e+00 1.751718e+00 1.875055e-01 3.081914e-01 2.074677e-01 6.823304e-01 5.149272e-01 4.786820e-01 6.988818e-01 2.904855e-01 2.049273e-01 4.908000e-01 4.780077e-01 2.584292e-01 2.485410e-01
<GCONST> 1.141341e+02
<TRANSP> 5
 0.000000e+00 1.000000e+00 0.000000e+00 0.000000e+00 0.000000e+00
 0.000000e+00 9.487528e-01 5.124721e-02 0.000000e+00 0.000000e+00
 0.000000e+00 0.000000e+00 9.372348e-01 6.276516e-02 0.000000e+00
 0.000000e+00 0.000000e+00 0.000000e+00 8.758525e-01 1.241476e-01
 0.000000e+00 0.000000e+00 0.000000e+00 0.000000e+00 0.000000e+00
<ENDHMM>
~o
<STREAMINFO> 1 39
<VECSIZE> 39<NULLD><MFCC_D_A_0><DIAGC>
~h "ling2"
<BEGINHMM>
<NUMSTATES> 5
<STATE> 2
<MEAN> 39
 -9.130312e+00 1.983455e+00 9.888512e+00 -6.606488e+00 -1.174969e+01 -9.127501e+00 -8.850935e+00 -8.233842e+00 -5.633093e+00 -8.730573e+00 -2.428040e+00 -3.995193e+00 7.678272e+01 3.117445e-01 -1.584923e-01 7.256163e-01 -9.309174e-01 -1.236156e+00 -1.409807e-01 -1.696006e-01 -1.425765e-01 -5.015902e-01 3.292789e-01 1.198341e-01 1.630312e-02 1.772847e+00 -2.150003e-01 3.007263e-02 -1.718015e-01 7.962011e-02 1.218348e-01 2.728620e-01 1.702383e-01 5.862579e-02 9.303591e-02 1.247085e-01 2.802993e-02 4.005354e-02 -2.959923e-01
<VARIANCE> 39
 1.239592e+01 1.210256e+01 1.602106e+01 5.297154e+01 4.487522e+01 3.062408e+01 5.679072e+01 2.108658e+01 5.434885e+01 3.589671e+01 3.376607e+01 1.838142e+01 2.950245e+01 1.892342e+00 1.543566e+00 2.240550e+00 3.613794e+00 5.273857e+00 3.612398e+00 5.362087e+00 3.559695e+00 2.960467e+00 2.915478e+00 4.300957e+00 2.402643e+00 1.708553e+00 3.956538e-01 3.064953e-01 3.265167e-01 7.085769e-01 1.443952e+00 8.938894e-01 9.727813e-01 5.978749e-01 6.012290e-01 3.893405e-01 7.097877e-01 5.134310e-01 2.520541e-01
<GCONST> 1.215227e+02
<STATE> 3
<MEAN> 39
 -8.416806e+00 5.307002e+00 9.513172e+00 -1.019084e+01 -1.667690e+01 -5.474464e+00 -2.128060e+00 -9.030792e+00 -7.399343e+00 -5.633581e+00 -3.536753e+00 -5.442131e+00 8.157576e+01 5.412372e-02 1.977167e-01 -2.232953e-01 -3.662400e-01 1.742101e-01 4.547660e-01 -3.574478e-03 -1.267047e-02 -1.970379e-01 2.820837e-01 -5.146448e-01 -1.580754e-01 -1.054007e-01 2.611029e-02 -4.951881e-02 -6.547165e-02 5.606084e-02 5.735953e-02 -6.716099e-02 4.985853e-03 -3.903293e-03 -5.136162e-02 -1.802071e-02 -4.797390e-02 7.311928e-03 -2.127508e-02
<VARIANCE> 39
 3.003942e+01 1.512843e+01 4.384853e+01 6.420772e+01 3.068080e+01 4.497972e+01 1.099021e+02 1.610611e+01 3.597166e+01 2.751473e+01 8.455315e+01 3.281150e+01 5.404845e+00 2.405201e-01 2.844535e-01 5.555612e-01 4.118205e-01 6.309702e-01 9.369888e-01 1.668381e+00 7.653598e-01 1.253150e+00 9.020437e-01 6.634122e-01 8.790026e-01 1.070162e-01 2.191892e-02 5.445214e-02 7.900385e-02 1.103688e-01 9.540752e-02 1.469068e-01 1.564235e-01 1.266381e-01 1.521725e-01 1.497772e-01 1.424219e-01 1.222682e-01 1.276503e-02
<GCONST> 7.801587e+01
<STATE> 4
<MEAN> 39
 -7.394499e+00 2.538172e+00 6.363658e-01 -1.102901e+01 -7.999609e+00 -2.710861e+00 -7.023113e+00 -9.218250e+00 -1.083527e+01 -4.791782e+00 -1.280254e+01 -7.366243e+00 7.532595e+01 -3.094060e-01 -1.160963e-01 -7.025386e-01 1.051781e+00 8.107563e-01 -3.880177e-01 1.214142e-01 -4.251998e-02 4.538974e-01 -4.736779e-01 3.432756e-01 7.174708e-02 -1.376934e+00 -1.524598e-01 -1.145627e-02 6.640957e-02 7.153130e-02 4.259333e-02 8.185508e-02 8.475105e-02 1.326081e-01 1.436953e-01 4.988494e-02 2.590098e-01 1.102360e-01 -1.364700e-01
<VARIANCE> 39
 1.056788e+01 6.244383e+01 2.187315e+01 6.576382e+01 4.043266e+01 4.321988e+01 5.511947e+01 5.651617e+01 1.758226e+01 4.008440e+01 6.387286e+01 6.047509e+01 4.690240e+01 1.574657e+00 2.104525e+00 2.052289e+00 3.405449e+00 2.686743e+00 2.608401e+00 1.828251e+00 2.172160e+00 1.960810e+00 4.033783e+00 4.430099e+00 1.577541e+00 2.506362e+00 1.451095e-01 3.121452e-01 3.055599e-01 5.170594e-01 4.678234e-01 4.166421e-01 3.311050e-01 3.027779e-01 2.722548e-01 8.182436e-01 4.155373e-01 1.844419e-01 2.258686e-01
<GCONST> 1.165824e+02
<TRANSP> 5
 0.000000e+00 1.000000e+00 0.000000e+00 0.000000e+00 0.000000e+00
 0.000000e+00 8.942648e-01 1.057352e-01 0.000000e+00 0.000000e+00
 0.000000e+00 0.000000e+00 9.477827e-01 5.221728e-02 0.000000e+00
 0.000000e+00 0.000000e+00 0.000000e+00 9.264234e-01 7.357657e-02
 0.000000e+00 0.000000e+00 0.000000e+00 0.000000e+00 0.000000e+00
<ENDHMM>
~o
<STREAMINFO> 1 39
<VECSIZE> 39<NULLD><MFCC_D_A_0><DIAGC>
~h "liu4"
<BEGINHMM>
<NUMSTATES> 5
<STATE> 2
<MEAN> 39
 -7.761063e+00 -9.254347e-01 9.896581e+00 -8.553473e+00 -1.459855e+01 -1.492265e+01 -1.176762e+01 -5.344831e+00 -8.137944e+00 -3.358930e+00 -4.390137e+00 -4.507036e+00 7.629457e+01 3.372572e-01 -4.173034e-01 9.177154e-02 -7.417996e-01 -1.047590e+00 -1.072661e+00 1.304918e-01 2.671143e-01 -3.241202e-01 7.425142e-01 8.527710e-02 2.715170e-01 1.733082e+00 -2.643968e-01 -4.047676e-02 -3.231300e-01 1.526594e-01 2.396057e-01 3.137304e-01 2.951104e-01 2.202708e-01 1.815330e-01 1.427287e-02 3.000625e-02 7.965772e-02 -3.817064e-01
<VARIANCE> 39
 8.769512e+00 2.433265e+01 2.441013e+01 7.132346e+01 7.942061e+01 2.367603e+01 8.901232e+01 2.128237e+01 1.812387e+01 5.409407e+01 7.266310e+01 2.898614e+01 2.903474e+01 1.130928e+00 1.364063e+00 2.937082e+00 3.474126e+00 3.178722e+00 4.044014e+00 4.239786e+00 2.841397e+00 2.235852e+00 4.844944e+00 5.279640e+00 2.094190e+00 2.470002e+00 2.053975e-01 1.746274e-01 3.752438e-01 7.127338e-01 4.920481e-01 6.820518e-01 7.507580e-01 4.766736e-01 4.204506e-01 1.042489e+00 1.227829e+00 3.924820e-01 2.548776e-01
<GCONST> 1.212981e+02
<STATE> 3
<MEAN> 39
 -5.266765e+00 -5.061185e+00 -7.634541e+00 -1.293813e+01 -9.586811e+00 -1.258373e+01 -6.872380e+00 -1.401078e+00 -4.764601e+00 3.203062e+00 -1.061367e+01 -3.484616e+00 8.157310e+01 2.718955e-01 -3.563443e-03 -1.180082e+00 -4.230497e-01 9.116464e-01 9.563538e-01 -1.690918e-01 -1.994561e-01 3.082181e-01 2.164895e-01 -3.058109e-01 -4.036423e-01 -9.793730e-02 3.837253e-02 9.087948e-02 2.417902e-02 -7.852265e-02 -4.815399e-03 1.620364e-01 -1.485920e-02 -7.807474e-02 -5.315455e-02 -3.909021e-03 1.996597e-01 6.930256e-04 -8.979258e-02
<VARIANCE> 39
 1.855043e+01 2.096903e+01 1.031982e+02 5.380034e+01 5.730442e+01 3.144813e+01 8.737826e+01 2.833985e+01 4.971133e+01 1.917366e+01 4.653150e+01 1.850460e+01 4.711887e+00 1.809676e-01 6.903701e-01 8.213950e-01 6.309220e-01 1.817013e+00 2.241533e+00 1.681833e+00 1.303493e+00 2.138737e+00 1.664635e+00 2.637568e+00 1.090694e+00 1.846073e-01 2.552900e-02 8.282056e-02 5.407383e-02 7.377035e-02 2.336887e-01 2.258574e-01 1.971087e-01 1.787383e-01 1.959386e-01 2.747201e-01 4.041928e-01 2.221799e-01 1.666803e-02
<GCONST> 8.943387e+01
<STATE> 4
<MEAN> 39
 -2.565207e+00 1.291968e+00 -1.337721e+01 -2.232958e+01 -7.812866e+00 3.203258e+00 -3.612990e+00 -4.092616e+00 -5.306618e+00 -8.364116e-01 -3.289130e+00 -2.846268e+00 7.290733e+01 -1.541848e-01 5.631825e-01 2.125262e-01 -1.359167e-01 -2.683431e-02 6.636502e-01 6.008608e-01 2.904201e-01 -1.289208e-01 -6.841034e-01 5.776361e-01 5.854102e-01 -1.170161e+00 -9.331479e-02 -2.029758e-03 9.400367e-02 2.215593e-01 3.264808e-02 -2.156398e-01 6.825940e-02 -2.217913e-02 3.175869e-02 -8.312263e-02 -1.531736e-01 -5.120988e-02 -7.526498e-02
<VARIANCE> 39
 6.175954e+00 3.441428e+01 2.450073e+01 4.784747e+01 2.527965e+01 3.061164e+01 1.351584e+02 3.192995e+01 4.683305e+01 1.528472e+01 4.461002e+01 2.326942e+01 2.289566e+01 7.038776e-01 5.822287e-01 9.232436e-01 2.156145e+00 1.256617e+00 1.567146e+00 8.750251e-01 9.743710e-01 8.441020e-01 1.348643e+00 1.728240e+00 1.649050e+00 8.389573e-01 6.533501e-02 7.445616e-02 1.451683e-01 2.244813e-01 2.261579e-01 2.238497e-01 1.736809e-01 2.261823e-01 1.018254e-01 1.840053e-01 2.919885e-01 2.654519e-01 6.376629e-02
<GCONST> 9.283286e+01
<TRANSP> 5
 0.000000e+00 1.000000e+00 0.000000e+00 0.000000e+00 0.000000e+00
 0.000000e+00 8.958987e-01 1.041013e-01 0.000000e+00 0.000000e+00
 0.000000e+00 0.000000e+00 9.363688e-01 6.363127e-02 0.000000e+00
 0.000000e+00 0.000000e+00 0.000000e+00 9.235330e-01 7.646701e-02
 0.000000e+00 0.000000e+00 0.000000e+00 0.000000e+00 0.000000e+00
<ENDHMM>
~o
<STREAMINFO> 1 39
<VECSIZE> 39<NULLD><MFCC_D_A_0><DIAGC>
~h "qi1"
<BEGINHMM>
<NUMSTATES> 5
<STATE> 2
<MEAN> 39
 -2.728149e+01 3.411904e+00 9.848340e-01 -1.009259e+01 -2.336579e+00 -5.282909e+00 -2.654759e+00 -3.755693e+00 -1.421373e+00 -3.327821e+00 -3.722098e-01 -7.781577e-01 7.898788e+01 4.903237e-01 2.637754e-01 9.354472e-01 -3.523228e-01 -6.481856e-01 -3.203473e-01 -5.615999e-01 -2.873049e-01 -5.382923e-01 -2.238829e-01 -1.842555e-01 -2.193827e-01 7.169108e-01 1.632098e-01 -6.049836e-02 8.706901e-02 6.103601e-02 -5.909856e-02 2.853426e-02 -2.706102e-02 1.612966e-02 -3.876700e-02 -5.351855e-03 -1.630575e-02 -9.079101e-03 -2.243806e-01
<VARIANCE> 39
 3.826672e+01 2.315196e+01 3.798423e+01 1.321163e+01 3.439144e+01 1.958120e+01 3.168246e+01 2.717112e+01 2.686217e+01 1.546277e+01 1.795189e+01 1.396936e+01 1.716805e+01 3.602295e+00 1.877357e+00 1.299120e+00 1.425869e+00 2.196982e+00 1.455103e+00 2.667782e+00 1.947440e+00 2.209464e+00 1.454911e+00 1.637970e+00 1.470234e+00 1.750640e+00 3.653697e-01 3.322681e-01 2.027175e-01 2.806559e-01 3.269100e-01 2.652021e-01 4.613105e-01 3.894797e-01 3.420769e-01 2.789948e-01 1.955502e-01 2.802130e-01 1.710173e-01
<GCONST> 1.041370e+02
<STATE> 3
<MEAN> 39
 -1.298211e+01 7.672385e+00 1.497914e+01 -1.231011e+01 -1.321252e+01 -8.413759e+00 -1.148003e+01 -8.794744e+00 -8.908105e+00 -7.237353e+00 -5.076218e+00 -3.223473e+00 7.913748e+01 3.678146e-02 6.368089e-02 3.750303e-02 -1.306768e-01 -8.973335e-02 3.188435e-02 -5.664212e-02 -4.139603e-02 2.404982e-02 7.474418e-02 -7.325456e-02 9.898285e-02 -1.504260e-01 -3.366380e-02 2.683785e-02 -5.606725e-02 4.211531e-02 4.364413e-02 -2.480981e-02 4.943117e-02 -4.443335e-02 3.336352e-02 -3.357615e-03 4.663396e-02 1.748393e-02 -2.550094e-02
<VARIANCE> 39
 3.333604e+00 2.220273e+01 1.230983e+01 7.866996e+01 1.612964e+01 1.813615e+01 6.232297e+01 1.624199e+01 2.607876e+01 2.176909e+01 5.342781e+01 3.105593e+01 6.971909e+00 8.178107e-02 1.187440e-01 3.013428e-01 5.945725e-01 4.734547e-01 5.855132e-01 3.908746e-01 6.034862e-01 5.160992e-01 6.129017e-01 5.977164e-01 4.103987e-01 6.223421e-02 2.596367e-02 3.002382e-02 5.707200e-02 1.012488e-01 1.099304e-01 1.256415e-01 7.715084e-02 1.170268e-01 1.256091e-01 1.141903e-01 8.568384e-02 7.417454e-02 9.931519e-03
<GCONST> 6.152391e+01
<STATE> 4
<MEAN> 39
 -1.279039e+01 5.555984e+00 1.285682e+01 -1.479017e+01 -1.505616e+01 -1.102122e+01 -1.225039e+01 -1.121070e+01 -1.147659e+01 -3.586280e+00 -4.388270e+00 -1.356635e+00 7.362236e+01 -1.585465e-01 -4.652189e-02 -9.878623e-01 1.012682e+00 4.810292e-01 6.547235e-01 7.365242e-01 -1.802583e-01 3.221186e-01 -1.856666e-01 2.771848e-01 3.399970e-01 -1.953190e+00 -1.328423e-01 -9.230874e-02 -4.085776e-01 5.048864e-01 3.251539e-01 4.443665e-01 2.288440e-01 3.556339e-01 3.279930e-01 -4.235733e-03 7.639740e-02 -8.677988e-02 -4.254668e-01
<VARIANCE> 39
 3.721496e+00 3.742349e+01 2.805019e+01 9.127236e+01 5.210452e+01 3.413598e+01 9.309501e+01 3.012354e+01 4.283798e+01 4.313000e+01 7.531435e+01 1.633098e+01 2.865753e+01 5.116795e-01 9.236048e-01 2.346057e+00 3.688751e+00 1.851089e+00 3.069930e+00 2.166881e+00 2.104314e+00 2.121477e+00 3.087902e+00 1.288357e+00 1.406575e+00 2.255676e+00 6.756827e-02 1.977001e-01 4.987530e-01 5.851500e-01 2.833747e-01 4.707772e-01 4.537429e-01 5.666438e-01 5.751560e-01 5.870025e-01 1.194392e-01 2.758878e-01 2.992033e-01
<GCONST> 1.112016e+02
<TRANSP> 5
 0.000000e+00 1.000000e+00 0.000000e+00 0.000000e+00 0.000000e+00
 0.000000e+00 9.474083e-01 5.259169e-02 0.000000e+00 0.000000e+00
 0.000000e+00 0.000000e+00 9.517731e-01 4.822690e-02 0.000000e+00
 0.000000e+00 0.000000e+00 0.000000e+00 8.347014e-01 1.652987e-01
 0.000000e+00 0.000000e+00 0.000000e+00 0.000000e+00 0.000000e+00
<ENDHMM>
~o
<STREAMINFO> 1 39
<VECSIZE> 39<NULLD><MFCC_D_A_0><DIAGC>
~h "san1"
<BEGINHMM>
<NUMSTATES> 5
<STATE> 2
<MEAN> 39
 -2.334173e+01 1.242299e+00 -5.562756e+00 -3.488607e+00 -5.307503e+00 -2.917405e+00 -9.903052e-01 -2.142104e+00 -2.094971e+00 -6.208981e+00 -3.199204e+00 -1.829174e+00 7.225230e+01 5.595907e-01 -4.505491e-01 -5.208757e-01 -5.140591e-01 -4.442070e-01 -5.789238e-01 -4.847395e-02 -9.183720e-02 -3.924542e-01 -8.049102e-01 -5.039204e-01 -5.778109e-02 1.096533e+00 9.528907e-02 -8.207522e-02 -3.103652e-03 4.241672e-02 1.059716e-01 5.000258e-02 3.071829e-02 -5.203484e-02 -4.760588e-02 6.491232e-03 4.732104e-02 9.762534e-03 -5.214054e-02
<VARIANCE> 39
 5.714555e+01 1.820048e+01 1.890745e+01 3.695347e+01 4.473037e+01 6.006985e+01 2.478008e+01 1.716508e+01 2.517194e+01 5.441212e+01 3.152379e+01 1.483080e+01 3.490823e+01 4.941129e+00 1.996296e+00 1.992792e+00 2.443588e+00 3.861194e+00 4.240636e+00 2.466769e+00 1.698465e+00 2.813565e+00 3.668306e+00 2.264775e+00 1.858941e+00 1.069375e+00 6.458767e-01 3.227878e-01 3.531559e-01 4.809286e-01 7.557690e-01 7.811080e-01 4.650393e-01 2.999882e-01 4.365780e-01 5.373580e-01 4.684690e-01 4.066883e-01 2.075360e-01
<GCONST> 1.174662e+02
<STATE> 3
<MEAN> 39
 -8.379623e+00 -1.013890e+01 -1.258666e+01 -8.494421e+00 -3.957593e+00 -1.000430e+01 8.311696e-02 -1.073159e+01 -1.138676e+01 -1.808661e+01 -7.576078e+00 -3.426808e+00 8.349763e+01 3.043028e-02 1.488431e-01 2.175079e-02 2.506865e-01 2.074002e-01 -5.218112e-02 -2.159193e-02 -5.192877e-02 -2.061380e-01 2.000142e-02 2.355359e-03 -5.555739e-02 -1.983736e-01 6.415142e-03 1.347044e-01 5.442063e-02 1.805484e-02 -1.117057e-01 -1.040217e-01 -7.228634e-02 6.622022e-02 4.632080e-02 2.731133e-02 -7.720253e-02 -3.816224e-02 -8.853471e-02
<VARIANCE> 39
 6.597668e+00 7.881068e+00 1.303464e+01 2.893081e+01 8.561889e+01 5.400928e+01 2.968744e+01 2.768582e+01 2.354168e+01 1.424079e+01 9.795654e+00 5.786105e+00 3.613681e+00 8.815391e-02 5.148159e-01 2.912024e-01 3.135266e-01 5.508748e-01 7.989842e-01 4.866789e-01 6.390790e-01 7.908728e-01 5.854225e-01 7.995894e-01 4.804794e-01 2.155501e-01 1.182156e-02 3.115656e-02 4.650925e-02 5.552679e-02 7.898568e-02 8.196361e-02 8.822091e-02 8.771455e-02 1.234954e-01 1.067261e-01 1.006784e-01 9.105913e-02 1.288792e-02
<GCONST> 5.997295e+01
<STATE> 4
<MEAN> 39
 -9.514944e+00 4.321727e+00 -1.091124e+00 -1.822962e+00 -8.686607e+00 -1.199596e+01 -7.751204e+00 -1.021377e+01 -1.309894e+01 -1.767191e+01 -1.302152e+01 -7.569240e+00 6.933981e+01 -4.959073e-01 6.787236e-01 1.238158e+00 6.592023e-01 2.092236e-01 6.178076e-01 -1.939810e-01 -3.823298e-01 2.704687e-01 3.773663e-01 1.568938e-01 5.488505e-02 -1.409063e+00 -1.332004e-01 -2.403161e-01 -1.142527e-01 -5.701190e-02 1.509912e-01 2.193683e-01 2.568107e-01 1.557238e-01 2.415648e-01 1.949627e-01 1.733848e-01 9.132267e-02 2.761443e-02
<VARIANCE> 39
 7.075727e+00 2.821859e+01 6.357851e+01 4.193919e+01 6.148348e+01 3.175637e+01 6.081238e+01 4.991851e+01 2.073834e+01 2.519550e+01 3.993154e+01 3.016555e+01 3.021975e+01 5.995066e-01 1.832326e+00 2.867548e+00 2.419744e+00 2.698663e+00 2.377403e+00 4.503055e+00 4.089450e+00 2.320426e+00 2.213110e+00 3.043877e+00 2.464329e+00 5.459290e-01 3.649820e-02 1.075627e-01 5.216810e-01 3.820985e-01 3.263710e-01 3.081912e-01 7.053625e-01 7.780666e-01 3.967046e-01 3.450871e-01 3.924858e-01 3.778003e-01 1.047282e-01
<GCONST> 1.108641e+02
<TRANSP> 5
 0.000000e+00 1.000000e+00 0.000000e+00 0.000000e+00 0.000000e+00
 0.000000e+00 9.484564e-01 5.154359e-02 0.000000e+00 0.000000e+00
 0.000000e+00 0.000000e+00 9.553140e-01 4.468603e-02 0.000000e+00
 0.000000e+00 0.000000e+00 0.000000e+00 9.194842e-01 8.051579e-02
 0.000000e+00 0.000000e+00 0.000000e+00 0.000000e+00 0.000000e+00
<ENDHMM>
~o
<STREAMINFO> 1 39
<VECSIZE> 39<NULLD><MFCC_D_A_0><DIAGC>
~h "shi2"
<BEGINHMM>
<NUMSTATES> 5
<STATE> 2
<MEAN> 39
 -2.996745e+01 -3.989977e+00 5.731944e+00 -6.596451e+00 -3.243072e+00 -5.201083e+00 5.089457e-01 1.376495e+00 -2.008627e-01 -5.614139e+00 1.789902e-03 1.688805e+00 7.864658e+01 7.010569e-02 4.056437e-01 2.161358e-01 -4.312490e-02 -1.676079e-01 -2.272120e-02 -2.306819e-01 -3.052520e-01 -2.297601e-01 -1.423393e-01 -1.306781e-01 -7.490157e-02 6.302541e-01 3.324413e-01 6.452753e-02 -5.831311e-02 6.632270e-02 -6.326906e-02 -4.890029e-02 -1.010548e-01 -1.310003e-01 -3.238308e-02 -1.428771e-02 -3.431720e-02 -2.089093e-02 -1.857812e-01
<VARIANCE> 39
 9.667431e+00 1.712981e+01 1.293399e+01 1.591358e+01 4.449150e+01 2.240124e+01 1.554317e+01 1.722314e+01 2.599363e+01 1.901410e+01 1.669643e+01 1.324577e+01 1.827108e+01 2.505970e+00 4.653771e-01 5.659125e-01 8.597573e-01 9.405041e-01 1.605953e+00 1.334763e+00 1.570986e+00 1.383639e+00 1.486478e+00 1.160267e+00 1.031245e+00 1.301374e+00 1.596463e-01 1.039316e-01 1.544783e-01 1.483148e-01 1.995892e-01 2.770246e-01 2.411005e-01 3.065537e-01 2.701539e-01 2.940331e-01 2.031330e-01 1.949126e-01 7.917937e-02
<GCONST> 8.919255e+01
<STATE> 3
<MEAN> 39
 -6.783101e+00 -3.027225e+00 8.494013e+00 -2.568678e+00 -1.556479e+01 -1.276269e+01 -1.013867e+01 -6.711508e+00 -2.391189e+00 -8.350579e+00 -3.878973e+00 1.064548e+00 7.846230e+01 6.739568e-01 -2.936031e-01 -1.659447e-02 -6.737711e-02 -3.345484e-01 -3.251840e-01 -3.466188e-01 -4.317333e-02 -1.029037e-01 8.192873e-02 -5.152265e-02 6.521770e-02 -2.038457e-03 -1.779595e-01 -6.030414e-02 -1.957624e-02 -3.628275e-02 6.158253e-02 7.219642e-02 1.280968e-01 1.161841e-01 2.333670e-02 2.874956e-02 1.412035e-02 3.804465e-02 5.758147e-04
<VARIANCE> 39
 2.484434e+01 1.129527e+01 1.996517e+01 3.842587e+01 6.893916e+01 1.513012e+01 5.940228e+01 2.021499e+01 7.525311e+01 5.242144e+00 1.049260e+01 1.105220e+01 5.536640e+00 1.858061e+00 6.080583e-01 3.375081e-01 6.793451e-01 1.223282e+00 1.080514e+00 1.541776e+00 1.301127e+00 7.011097e-01 5.388594e-01 6.717237e-01 1.014575e+00 2.018555e-01 1.222479e-01 1.591843e-01 5.761062e-02 1.236032e-01 1.638061e-01 1.708820e-01 2.210406e-01 2.110596e-01 1.171210e-01 1.082128e-01 1.075938e-01 1.805615e-01 3.559918e-02
<GCONST> 7.993754e+01
<STATE> 4
<MEAN> 39
 -8.463364e+00 -7.049874e+00 7.752180e+00 -9.482288e+00 -1.344353e+01 -1.200277e+01 -1.059440e+01 3.215100e+00 -3.980919e+00 -7.857358e+00 -6.913437e+00 6.278993e-01 7.757047e+01 -2.507212e-01 1.355333e-01 -9.148326e-01 6.936707e-02 3.127396e-01 5.385136e-01 5.818338e-01 5.116851e-01 4.405681e-01 -1.041658e-01 6.297683e-03 -1.099868e-01 -1.279522e+00 -2.262919e-01 1.758353e-01 -8.162347e-02 8.615217e-02 2.248790e-01 1.990060e-01 9.088221e-02 -1.713297e-02 7.434014e-02 1.280511e-01 3.896703e-02 -6.613527e-02 -2.745910e-01
<VARIANCE> 39
 6.864586e+00 2.498449e+01 5.136892e+01 7.938007e+01 4.406646e+01 3.266835e+01 7.927499e+01 6.054711e+01 6.245861e+01 1.438815e+01 1.701650e+01 1.093479e+01 3.839013e+01 1.653329e+00 2.845511e+00 1.901731e+00 1.985592e+00 1.974469e+00 1.435085e+00 2.199533e+00 2.209240e+00 2.159304e+00 1.693671e+00 2.235822e+00 1.435738e+00 3.412969e+00 1.210430e-01 3.554602e-01 2.239777e-01 3.103946e-01 2.044944e-01 4.021330e-01 2.542293e-01 3.437769e-01 3.653426e-01 3.516893e-01 4.406190e-01 2.777126e-01 1.970835e-01
<GCONST> 1.092243e+02
<TRANSP> 5
 0.000000e+00 1.000000e+00 0.000000e+00 0.000000e+00 0.000000e+00
 0.000000e+00 9.484528e-01 5.154720e-02 0.000000e+00 0.000000e+00
 0.000000e+00 0.000000e+00 9.486060e-01 5.139396e-02 0.000000e+00
 0.000000e+00 0.000000e+00 0.000000e+00 9.133638e-01 8.663622e-02
 0.000000e+00 0.000000e+00 0.000000e+00 0.000000e+00 0.000000e+00
<ENDHMM>
~o
<STREAMINFO> 1 39
<VECSIZE> 39<NULLD><MFCC_D_A_0><DIAGC>
~h "si4"
<BEGINHMM>
<NUMSTATES> 5
<STATE> 2
<MEAN> 39
 -2.842048e+01 3.723801e+00 -6.152954e+00 -9.049473e-01 -3.523593e+00 -1.454202e+00 -8.084823e-01 -1.764506e+00 -1.640205e+00 -2.705432e+00 6.309479e-01 -1.862212e+00 7.571938e+01 2.158668e-02 2.544308e-01 -1.421743e-01 -2.347368e-01 -4.821535e-01 -5.523900e-01 -4.874459e-01 -4.345883e-01 -3.956526e-01 -3.032627e-01 -1.484408e-01 2.743340e-02 6.739520e-01 2.663271e-01 -1.759992e-02 7.883587e-02 -3.685135e-02 -1.359053e-01 -2.237629e-01 -2.045394e-01 -1.391778e-01 -7.048053e-02 -1.329814e-01 -9.899591e-02 2.497744e-02 -7.589146e-02
<VARIANCE> 39
 7.949440e+00 1.538728e+01 9.648026e+00 1.489711e+01 1.342921e+01 1.364369e+01 1.680577e+01 2.540585e+01 1.561796e+01 1.245563e+01 1.021462e+01 9.311561e+00 1.215241e+01 2.459826e+00 1.439559e+00 1.284343e+00 1.235722e+00 2.194498e+00 3.734829e+00 3.330054e+00 2.628782e+00 1.470902e+00 1.736130e+00 1.156167e+00 8.966892e-01 6.007391e-01 2.293754e-01 2.416240e-01 2.650166e-01 2.144244e-01 3.420072e-01 5.081966e-01 5.831005e-01 5.263819e-01 3.151503e-01 3.219214e-01 2.094644e-01 2.157108e-01 7.559034e-02
<GCONST> 9.484681e+01
<STATE> 3
<MEAN> 39
 -1.204154e+01 1.871497e+00 -1.992986e+00 -9.273138e+00 -1.525842e+01 -1.928728e+01 -9.171000e+00 -9.173702e+00 -4.709000e+00 -8.350925e+00 -5.449708e+00 3.552821e+00 8.211880e+01 4.408033e-01 2.914933e-02 1.011807e-01 -6.200835e-02 -2.313026e-01 -2.361846e-01 -5.725101e-02 1.686744e-01 1.504078e-01 2.542880e-02 6.456984e-02 1.600591e-01 -5.627584e-03 -1.322351e-01 1.873077e-02 -3.645406e-02 6.143801e-02 1.251798e-01 1.649394e-01 1.135237e-01 8.721706e-02 5.536479e-02 1.040908e-01 1.037976e-01 4.078325e-03 -6.590159e-02
<VARIANCE> 39
 8.888499e+00 1.162501e+01 1.275007e+01 1.602081e+01 4.015849e+01 3.434471e+01 7.313013e+01 4.290770e+01 2.089117e+01 1.552581e+01 2.679761e+01 6.355689e+01 2.779356e+00 7.816023e-01 3.845938e-01 5.931726e-01 6.208845e-01 9.527314e-01 1.560217e+00 1.568085e+00 1.702028e+00 1.166526e+00 9.865996e-01 1.368286e+00 1.442344e+00 2.278585e-01 7.848429e-02 6.355061e-02 9.565929e-02 9.258600e-02 1.519732e-01 2.719733e-01 3.462635e-01 2.816451e-01 1.697429e-01 1.827593e-01 1.694245e-01 2.194676e-01 2.087409e-02
<GCONST> 8.350269e+01
<STATE> 4
<MEAN> 39
 -1.306334e+01 5.794167e+00 -1.847331e+00 -4.452228e+00 -1.231429e+01 -1.625770e+01 -1.016474e+01 -3.977022e+00 -3.870935e+00 -8.497783e+00 4.705897e-01 1.744855e+00 7.379073e+01 -5.990610e-01 -8.894422e-02 6.614182e-02 8.417190e-01 1.018122e+00 1.025163e+00 7.470920e-01 2.254457e-01 1.878753e-02 -1.177895e-01 -1.799463e-01 -2.287527e-01 -1.342253e+00 -7.969492e-02 -1.762280e-01 -3.026728e-02 6.098673e-02 1.115069e-01 2.222710e-01 2.179506e-01 1.233836e-01 4.977797e-02 5.849613e-02 -5.569220e-02 -5.198075e-02 -2.776329e-02
<VARIANCE> 39
 1.821081e+01 1.432520e+01 1.436014e+01 3.425750e+01 7.170335e+01 7.074309e+01 1.138633e+02 4.470790e+01 4.392159e+01 2.003848e+01 3.034992e+01 4.060757e+01 3.349379e+01 1.639593e+00 8.589463e-01 1.450143e+00 1.486586e+00 1.859067e+00 2.775928e+00 3.567274e+00 2.576330e+00 2.223200e+00 1.935827e+00 2.234339e+00 2.351210e+00 9.730490e-01 2.250272e-01 1.206792e-01 3.070242e-01 2.948658e-01 2.829256e-01 3.821429e-01 6.085778e-01 4.835188e-01 4.351725e-01 4.063472e-01 4.686646e-01 3.723375e-01 1.799900e-01
<GCONST> 1.113261e+02
<TRANSP> 5
 0.000000e+00 1.000000e+00 0.000000e+00 0.000000e+00 0.000000e+00
 0.000000e+00 9.484742e-01 5.152583e-02 0.000000e+00 0.000000e+00
 0.000000e+00 0.000000e+00 9.585042e-01 4.149578e-02 0.000000e+00
 0.000000e+00 0.000000e+00 0.000000e+00 9.082029e-01 9.179708e-02
 0.000000e+00 0.000000e+00 0.000000e+00 0.000000e+00 0.000000e+00
<ENDHMM>
~o
<STREAMINFO> 1 39
<VECSIZE> 39<NULLD><MFCC_D_A_0><DIAGC>
~h "sil"
<BEGINHMM>
<NUMSTATES> 5
<STATE> 2
<MEAN> 39
 -1.725532e+01 -3.432025e-01 -1.425416e+00 -2.822260e-01 -8.144968e-01 -1.156075e+00 5.950221e-01 -2.626786e+00 -2.379140e+00 -5.825989e+00 -1.354883e+00 -1.573565e+00 6.258992e+01 -2.743481e-01 1.805664e-01 -9.907741e-02 2.527467e-01 8.693132e-01 -1.606682e-01 5.758264e-02 -9.302530e-02 6.140559e-01 2.891021e-01 2.883076e-01 4.628187e-01 -1.098576e+00 4.584453e-02 -4.317917e-02 -5.424795e-04 -4.785855e-02 -1.841208e-01 9.331771e-02 -3.069314e-02 6.516393e-02 -4.785693e-02 5.145030e-02 1.644765e-02 -1.348854e-01 2.878902e-01
<VARIANCE> 39
 7.749535e+00 2.479008e+01 1.785371e+01 1.867876e+01 2.651357e+01 3.987640e+01 3.575066e+01 3.767365e+01 2.370750e+01 3.213419e+01 1.990223e+01 1.585087e+01 2.616305e+01 8.442684e-01 1.722790e+00 1.135756e+00 1.689539e+00 1.579673e+00 5.104628e+00 4.149149e+00 4.266646e+00 2.669214e+00 3.004674e+00 2.107325e+00 1.673917e+00 1.685204e+00 1.332637e-01 2.120765e-01 1.862651e-01 2.752462e-01 2.743486e-01 6.568879e-01 5.892056e-01 6.674824e-01 4.559975e-01 4.543926e-01 3.090730e-01 2.736354e-01 1.838296e-01
<GCONST> 1.074982e+02
<STATE> 3
<MEAN> 39
 -1.806129e+01 1.750623e+00 -7.526819e-01 1.540957e+00 1.834241e+00 -5.072594e-01 -1.048323e+00 -3.246844e+00 -6.665573e-01 -4.177214e+00 -2.573216e-01 -1.112216e+00 6.040593e+01 9.159769e-03 8.824749e-02 3.109188e-02 1.120372e-02 -6.445166e-02 -8.181825e-02 -9.344874e-02 -5.049576e-02 2.545866e-03 3.930733e-02 1.296207e-02 -2.824135e-02 -3.472238e-02 1.670473e-02 -3.004527e-03 -2.181367e-03 -1.978698e-02 -2.608412e-02 2.075698e-03 9.902497e-03 1.313247e-02 -1.929180e-02 -1.047402e-02 -2.464744e-02 -1.072276e-02 4.172791e-02
<VARIANCE> 39
 2.919446e+00 6.021273e+00 6.524912e+00 5.826796e+00 8.037896e+00 1.205697e+01 1.601714e+01 1.683401e+01 1.258470e+01 1.020784e+01 9.469929e+00 1.049116e+01 1.695778e+01 1.079020e-01 2.100359e-01 3.255206e-01 4.803813e-01 6.570944e-01 9.186714e-01 1.119494e+00 1.276778e+00 1.315439e+00 1.010530e+00 9.553908e-01 9.082342e-01 5.405068e-02 2.683594e-02 4.768765e-02 7.069726e-02 1.034390e-01 1.329585e-01 2.030752e-01 2.355669e-01 2.785962e-01 2.739103e-01 2.093316e-01 2.140048e-01 1.841754e-01 2.310464e-02
<GCONST> 6.429776e+01
<STATE> 4
<MEAN> 39
 -1.797578e+01 1.390449e+00 -1.515353e+00 -1.058256e+00 -7.056338e-01 -2.785329e+00 -2.360050e+00 -3.989568e+00 -1.084173e+00 -3.641953e+00 -1.207068e+00 -1.706769e+00 6.188454e+01 1.045429e-01 -1.023378e-01 -1.785164e-01 -1.032836e+00 -4.852409e-01 -3.721248e-01 -2.064722e-01 -1.922162e-01 -2.366250e-01 -2.222376e-01 -5.426843e-01 -2.462506e-01 1.444443e+00 1.078352e-02 6.392687e-02 -6.416616e-02 -2.491533e-01 -6.967141e-02 7.306478e-03 -4.731511e-02 -1.162653e-01 -1.014744e-01 -1.091773e-01 -1.244095e-01 -8.703117e-02 3.443406e-01
<VARIANCE> 39
 1.296288e+01 3.085480e+01 1.648160e+01 1.774014e+01 1.987916e+01 2.095191e+01 2.589385e+01 2.412315e+01 1.511901e+01 1.416869e+01 1.656369e+01 1.100194e+01 3.122783e+01 2.669223e+00 4.102129e+00 2.228439e+00 3.717433e+00 3.344332e+00 2.677135e+00 3.195153e+00 3.357463e+00 1.860689e+00 1.988453e+00 2.245984e+00 1.741704e+00 4.613073e+00 3.457909e-01 5.248913e-01 2.761772e-01 4.163257e-01 5.628762e-01 4.249005e-01 5.124236e-01 4.525263e-01 3.672561e-01 3.385876e-01 3.682067e-01 2.918971e-01 4.837926e-01
<GCONST> 1.113002e+02
<TRANSP> 5
 0.000000e+00 1.000000e+00 0.000000e+00 0.000000e+00 0.000000e+00
 0.000000e+00 8.366766e-01 1.633234e-01 0.000000e+00 0.000000e+00
 0.000000e+00 0.000000e+00 9.345108e-01 6.548918e-02 0.000000e+00
 0.000000e+00 0.000000e+00 0.000000e+00 7.373593e-01 2.626407e-01
 0.000000e+00 0.000000e+00 0.000000e+00 0.000000e+00 0.000000e+00
<ENDHMM>
~o
<STREAMINFO> 1 39
<VECSIZE> 39<NULLD><MFCC_D_A_0><DIAGC>
~h "wu3"
<BEGINHMM>
<NUMSTATES> 5
<STATE> 2
<MEAN> 39
 -4.850234e+00 9.284339e+00 -5.941561e+00 -1.622838e+01 -1.026217e+01 -8.991296e+00 -7.350656e+00 -1.092899e+01 -9.043368e+00 -8.432944e+00 -4.660075e+00 -3.489780e+00 7.452600e+01 2.140949e+00 5.086344e-01 -1.205352e+00 -2.774392e+00 -1.098132e+00 1.657162e-02 -3.217162e-01 -5.967575e-01 -1.195651e+00 -7.711691e-01 -9.787351e-01 1.269311e-02 1.989444e+00 -5.339727e-01 -4.036896e-01 1.197422e-01 6.616327e-01 6.048356e-01 5.161439e-01 3.934007e-01 3.704281e-01 2.553857e-01 1.860977e-01 1.304541e-01 1.706839e-01 -2.889859e-01
<VARIANCE> 39
 1.788766e+01 1.416814e+01 2.080574e+01 5.190889e+01 2.540024e+01 2.292855e+01 1.315667e+01 1.911593e+01 1.970914e+01 1.466469e+01 3.032446e+01 1.283548e+01 1.363757e+01 3.126578e+00 2.491208e+00 1.696020e+00 6.457955e+00 5.380372e+00 3.619802e+00 1.661901e+00 1.817215e+00 1.565533e+00 1.355480e+00 3.536982e+00 1.266902e+00 1.126402e+00 3.339629e-01 2.708221e-01 4.059575e-01 9.170022e-01 5.775432e-01 4.984168e-01 1.983114e-01 3.160877e-01 3.006382e-01 2.314879e-01 5.110888e-01 2.102689e-01 2.087828e-01
<GCONST> 1.073589e+02
<STATE> 3
<MEAN> 39
 -1.798933e+00 9.455673e+00 -8.568157e+00 -2.081348e+01 -1.049932e+01 -6.684788e+00 -4.106095e+00 -5.798338e+00 -8.819373e+00 -7.043738e+00 -8.173254e+00 -2.652271e+00 7.827100e+01 -1.260760e-02 -5.586710e-04 -2.092623e-02 1.571917e-02 3.846355e-03 -3.759123e-02 1.015140e-01 1.359703e-01 1.777846e-02 4.791845e-02 2.203193e-02 -1.659265e-02 -6.042909e-02 -2.533472e-02 1.652540e-02 3.677822e-02 4.459608e-02 -7.101544e-03 -3.073432e-02 -3.393333e-02 -1.938841e-02 4.740740e-03 5.288686e-03 3.513628e-02 -2.093522e-02 -4.266742e-02
<VARIANCE> 39
 1.656685e+00 1.763136e+01 5.317955e+00 1.450797e+01 2.509319e+01 1.274965e+01 2.007607e+01 4.182941e+01 1.325214e+01 1.706529e+01 2.511840e+01 1.875235e+01 2.682844e+00 7.668783e-02 1.725933e-01 4.184800e-01 4.240856e-01 5.269357e-01 5.233625e-01 6.361361e-01 9.537229e-01 7.430449e-01 8.534609e-01 6.903587e-01 6.588541e-01 1.039782e-01 1.589859e-02 2.402078e-02 7.046992e-02 6.687477e-02 1.069240e-01 9.201259e-02 1.233600e-01 1.606511e-01 1.115107e-01 1.618771e-01 1.324010e-01 1.301794e-01 1.614417e-02
<GCONST> 5.914124e+01
<STATE> 4
<MEAN> 39
 -7.250694e+00 6.188477e+00 -5.547740e+00 -1.044361e+01 -5.006995e+00 -3.473375e+00 -2.327895e+00 -6.537745e+00 -9.052311e+00 -9.541320e+00 -6.630013e+00 -4.017292e+00 7.257449e+01 -1.212571e+00 -6.543481e-01 3.849434e-01 1.685148e+00 1.304040e+00 1.175683e+00 6.128789e-01 4.680627e-01 6.397749e-01 1.523559e-01 4.582222e-01 2.326472e-01 -9.889591e-01 -9.141176e-02 -1.493740e-01 -7.307934e-02 5.785291e-02 2.160996e-01 1.402134e-01 1.415796e-01 1.483724e-01 1.990185e-01 8.642683e-02 9.497910e-02 1.772862e-01 4.609524e-03
<VARIANCE> 39
 1.368023e+01 2.234613e+01 1.191512e+01 5.985075e+01 4.169990e+01 4.765161e+01 3.161732e+01 1.861917e+01 1.443752e+01 1.896213e+01 2.043951e+01 1.569738e+01 9.763575e+00 4.301438e-01 8.991987e-01 1.107573e+00 2.946167e+00 2.721596e+00 2.203781e+00 3.174253e+00 2.189398e+00 1.811331e+00 2.810727e+00 2.117268e+00 1.992459e+00 1.382364e-01 6.008611e-02 1.202411e-01 1.691397e-01 4.298859e-01 4.049463e-01 4.907400e-01 6.300175e-01 3.673170e-01 4.056386e-01 5.978664e-01 3.707713e-01 2.760151e-01 4.909861e-02
<GCONST> 9.931383e+01
<TRANSP> 5
 0.000000e+00 1.000000e+00 0.000000e+00 0.000000e+00 0.000000e+00
 0.000000e+00 8.157700e-01 1.842300e-01 0.000000e+00 0.000000e+00
 0.000000e+00 0.000000e+00 9.683348e-01 3.166522e-02 0.000000e+00
 0.000000e+00 0.000000e+00 0.000000e+00 8.836042e-01 1.163958e-01
 0.000000e+00 0.000000e+00 0.000000e+00 0.000000e+00 0.000000e+00
<ENDHMM>
~o
<STREAMINFO> 1 39
<VECSIZE> 39<NULLD><MFCC_D_A_0><DIAGC>
~h "xing1qi1er4"
<BEGINHMM>
<NUMSTATES> 5
<STATE> 2
<MEAN> 39
 -2.143334e+01 7.836332e+00 5.675443e-01 -8.722792e+00 -5.199866e+00 -6.650227e+00 -3.614485e+00 -1.057573e+01 -3.609648e+00 -4.776267e+00 -4.235646e+00 -4.443777e+00 7.215005e+01 1.896707e-01 2.926221e-02 2.301053e-01 -2.956753e-01 -4.058748e-01 -2.010399e-01 -2.049556e-01 -1.643540e-01 -1.282872e-01 3.378031e-02 -4.008580e-02 -9.019511e-02 2.592003e-01 5.719995e-02 -4.120725e-02 -1.634750e-02 3.372179e-02 -2.517982e-02 2.368341e-02 2.743516e-02 5.664749e-02 1.127232e-02 2.544797e-02 4.795172e-03 -5.060939e-03 -8.178590e-02
<VARIANCE> 39
 8.746738e+01 1.567731e+01 4.798285e+01 6.388254e+01 5.634907e+01 3.746535e+01 6.988023e+01 8.705649e+01 4.769651e+01 3.903155e+01 4.753459e+01 4.640131e+01 2.075479e+01 4.563316e+00 1.552771e+00 2.305640e+00 3.483727e+00 3.470167e+00 2.554407e+00 4.611118e+00 5.490107e+00 4.259796e+00 3.243626e+00 3.255392e+00 2.475611e+00 1.558439e+00 4.378310e-01 2.856097e-01 3.709243e-01 5.004632e-01 4.121980e-01 5.316631e-01 6.870450e-01 8.697957e-01 7.426906e-01 5.877900e-01 5.134571e-01 4.307544e-01 2.243506e-01
<GCONST> 1.265410e+02
<STATE> 3
<MEAN> 39
 -1.449471e+01 -3.649030e+00 -2.168753e+00 -8.947939e+00 -7.403541e+00 -9.349238e+00 -1.802981e+00 -2.761808e+00 -1.341018e+00 -5.469286e+00 -3.642364e+00 -4.477736e+00 6.965039e+01 3.745403e-01 -1.490982e+00 -2.109732e+00 9.549336e-01 1.768999e+00 1.300166e-01 3.409960e-01 7.411742e-01 -1.694522e-01 -1.244267e+00 -7.773435e-01 1.337294e-01 5.715669e-01 2.638558e-02 2.917197e-02 1.030845e-04 -5.252931e-02 1.324379e-01 -1.422778e-02 -1.932021e-01 -3.644351e-01 -1.522597e-01 -8.725707e-02 -1.159724e-01 -8.639051e-02 2.330565e-01
<VARIANCE> 39
 2.279932e+01 5.292891e+01 6.964948e+01 5.893829e+01 1.258752e+02 2.738680e+01 3.470003e+01 4.207648e+01 3.426472e+01 5.601028e+01 4.077415e+01 2.528232e+01 8.291311e+01 3.576176e+00 5.610576e+00 3.415284e+00 7.422844e+00 6.923123e+00 3.935880e+00 3.543541e+00 5.169019e+00 5.404229e+00 4.592643e+00 3.405971e+00 2.264598e+00 1.335563e+01 7.077016e-01 1.349023e+00 7.225676e-01 1.315642e+00 1.957840e+00 9.192445e-01 5.115076e-01 6.008862e-01 8.656659e-01 1.077719e+00 8.482121e-01 3.392681e-01 2.115531e+00
<GCONST> 1.404763e+02
<STATE> 4
<MEAN> 39
 -5.589680e+00 -1.285732e+01 -1.324971e+01 -4.878796e+00 -3.359331e+00 -7.253838e+00 -3.394533e+00 -4.095778e+00 -7.444046e+00 -1.302951e+01 -7.728641e+00 -6.556057e+00 7.754543e+01 -5.055461e-02 2.176678e-01 3.293500e-01 4.225486e-01 -4.000421e-03 2.262019e-01 1.096130e-01 1.272328e-01 -3.280623e-02 -8.888059e-02 8.148927e-02 8.477756e-02 -5.649400e-01 -1.049938e-01 2.666985e-02 9.450006e-02 6.725246e-02 4.294429e-02 3.086210e-02 6.119086e-02 9.225085e-02 6.796911e-02 2.260141e-02 5.355958e-02 7.480639e-02 -1.153438e-01
<VARIANCE> 39
 1.533633e+01 1.383863e+01 3.954429e+01 3.223157e+01 3.083831e+01 1.649838e+01 3.289055e+01 2.957146e+01 3.179667e+01 1.477517e+01 1.506168e+01 1.548712e+01 2.659788e+01 6.701997e-01 6.327707e-01 1.009620e+00 8.639598e-01 7.725038e-01 8.724424e-01 1.540185e+00 1.172985e+00 6.597646e-01 1.135263e+00 8.085176e-01 1.425081e+00 7.171038e-01 6.635683e-02 1.179517e-01 1.399947e-01 1.299565e-01 9.493499e-02 1.353907e-01 2.564183e-01 1.677049e-01 1.279239e-01 1.674132e-01 1.879269e-01 1.873786e-01 8.042217e-02
<GCONST> 8.483715e+01
<TRANSP> 5
 0.000000e+00 1.000000e+00 0.000000e+00 0.000000e+00 0.000000e+00
 0.000000e+00 9.795409e-01 2.045913e-02 0.000000e+00 0.000000e+00
 0.000000e+00 0.000000e+00 9.067746e-01 9.322534e-02 0.000000e+00
 0.000000e+00 0.000000e+00 0.000000e+00 9.640223e-01 3.597774e-02
 0.000000e+00 0.000000e+00 0.000000e+00 0.000000e+00 0.000000e+00
<ENDHMM>
~o
<STREAMINFO> 1 39
<VECSIZE> 39<NULLD><MFCC_D_A_0><DIAGC>
~h "xing1qi1liu4"
<BEGINHMM>
<NUMSTATES> 5
<STATE> 2
<MEAN> 39
 -2.155633e+01 7.701932e+00 -1.647318e+00 -6.398466e+00 -4.435456e+00 -6.252389e+00 -2.343189e+00 -9.446038e+00 -4.473500e+00 -5.578627e+00 -2.824753e+00 -3.975894e+00 7.333382e+01 1.401704e-01 1.568439e-01 2.799558e-01 -3.013329e-01 -2.761318e-01 -2.845260e-01 -2.609957e-01 -2.843975e-01 -2.299694e-01 -1.094380e-01 -1.791884e-01 -1.060743e-01 3.069871e-01 1.041667e-01 -2.590072e-02 5.497441e-02 -3.182448e-02 -5.718333e-02 -2.293328e-02 -3.440849e-02 -3.013628e-02 -2.457620e-02 -2.723793e-02 -5.829604e-02 -1.710992e-02 -4.379752e-02
<VARIANCE> 39
 8.827228e+01 1.887209e+01 3.023870e+01 5.821465e+01 5.117896e+01 3.442604e+01 6.234379e+01 5.761255e+01 7.352678e+01 4.130367e+01 4.394031e+01 3.049845e+01 2.074311e+01 5.464656e+00 1.969645e+00 2.414932e+00 4.805427e+00 4.864882e+00 3.446273e+00 4.963970e+00 4.273131e+00 4.993508e+00 2.680793e+00 3.446753e+00 2.630888e+00 1.819803e+00 5.179507e-01 3.815970e-01 3.415737e-01 6.706966e-01 6.822181e-01 6.023753e-01 7.651083e-01 6.607857e-01 7.368037e-01 4.010913e-01 5.268241e-01 4.928555e-01 2.715673e-01
<GCONST> 1.280424e+02
<STATE> 3
<MEAN> 39
 -1.294534e+01 1.774668e+00 7.517808e+00 -1.606328e+01 -1.430739e+01 -1.509694e+01 -7.279945e+00 -1.422047e+01 -6.724193e+00 -7.383101e+00 -7.832713e+00 -4.922882e+00 7.845082e+01 2.443649e-01 -5.611703e-01 -4.333373e-01 -6.948707e-02 4.848398e-02 -1.113192e-01 2.452547e-01 3.881113e-01 3.374640e-01 -7.158939e-02 -1.728557e-01 7.873365e-02 2.510765e-01 -4.052225e-02 -6.619141e-03 -1.294226e-01 5.694211e-02 2.036841e-01 6.236626e-02 -3.272121e-02 7.139148e-02 6.201558e-02 1.836196e-02 -1.017993e-02 7.672396e-03 -3.584757e-02
<VARIANCE> 39
 5.270024e+00 3.349828e+01 3.720250e+01 4.501762e+01 3.953437e+01 4.328785e+01 4.983196e+01 4.380619e+01 2.038429e+01 1.612478e+01 3.794353e+01 3.069436e+01 2.320607e+01 3.775037e-01 1.007029e+00 1.563337e+00 3.229309e+00 3.319896e+00 1.799268e+00 2.416152e+00 1.778539e+00 2.240270e+00 1.550916e+00 2.123264e+00 1.298878e+00 1.746767e+00 1.048630e-01 2.057776e-01 1.947512e-01 6.002182e-01 7.045765e-01 3.977851e-01 4.738633e-01 3.421633e-01 4.475755e-01 2.869166e-01 4.348311e-01 2.379901e-01 3.233411e-01
<GCONST> 1.075985e+02
<STATE> 4
<MEAN> 39
 -5.642061e+00 -2.220026e+00 -1.184591e+01 -1.931279e+01 -2.952418e-01 -4.142906e+00 -5.257777e+00 -9.384505e+00 -9.881923e-01 -6.263173e+00 -6.469454e+00 -6.858993e+00 7.713785e+01 -7.965283e-03 6.484580e-01 -2.313184e-01 2.605335e-01 6.818164e-01 9.914638e-01 1.944460e-01 -2.926573e-01 -4.164485e-01 6.471285e-02 5.237738e-01 2.830439e-02 -9.404276e-01 -1.357750e-01 2.495796e-02 2.128881e-01 1.431288e-01 -1.622501e-01 -1.229604e-02 1.138748e-01 -2.464625e-02 -8.313132e-02 1.037711e-02 1.033792e-01 7.055896e-02 -7.245410e-02
<VARIANCE> 39
 6.740273e+00 2.345300e+01 1.820640e+01 2.983648e+01 4.904191e+01 5.942926e+01 2.366803e+01 2.573879e+01 4.276024e+01 3.973511e+01 3.837514e+01 3.367451e+01 2.965451e+01 7.648573e-01 4.920930e-01 1.725930e+00 1.533999e+00 2.906707e+00 1.108934e+00 1.414232e+00 1.115527e+00 1.949442e+00 2.733448e+00 2.328003e+00 1.744670e+00 4.858325e-01 7.615512e-02 9.027313e-02 1.419098e-01 2.174392e-01 3.130621e-01 1.693434e-01 1.557295e-01 2.218871e-01 3.469364e-01 4.317892e-01 4.195665e-01 2.593296e-01 3.068031e-02
<GCONST> 9.703318e+01
<TRANSP> 5
 0.000000e+00 1.000000e+00 0.000000e+00 0.000000e+00 0.000000e+00
 0.000000e+00 9.748685e-01 2.513155e-02 0.000000e+00 0.000000e+00
 0.000000e+00 0.000000e+00 9.636828e-01 3.631718e-02 0.000000e+00
 0.000000e+00 0.000000e+00 0.000000e+00 9.470186e-01 5.298143e-02
 0.000000e+00 0.000000e+00 0.000000e+00 0.000000e+00 0.000000e+00
<ENDHMM>
~o
<STREAMINFO> 1 39
<VECSIZE> 39<NULLD><MFCC_D_A_0><DIAGC>
~h "xing1qi1san1"
<BEGINHMM>
<NUMSTATES> 5
<STATE> 2
<MEAN> 39
 -1.958440e+01 6.853096e+00 -4.089166e-01 -8.008368e+00 -6.576435e+00 -6.732899e+00 -3.963562e+00 -1.251323e+01 -4.773831e+00 -6.564257e+00 -4.656048e+00 -5.918581e+00 7.378986e+01 -2.215187e-01 5.407353e-02 -4.407771e-02 4.401458e-02 -7.701959e-02 1.315221e-01 4.451373e-02 -3.930710e-02 -4.072740e-02 -6.438930e-02 -3.630477e-02 -4.749114e-02 2.635937e-01 -2.181402e-02 4.354991e-03 -2.493026e-02 5.407091e-02 2.593575e-02 5.320000e-02 1.260100e-02 6.726316e-02 2.618282e-02 4.878728e-02 4.033934e-02 4.211747e-02 -5.622456e-02
<VARIANCE> 39
 8.267534e+01 1.465280e+01 3.194394e+01 5.315011e+01 5.433717e+01 2.853630e+01 7.005059e+01 8.232073e+01 5.033776e+01 3.679601e+01 6.655640e+01 4.744666e+01 1.806024e+01 6.403898e+00 1.172393e+00 2.575184e+00 4.225264e+00 4.304316e+00 3.467978e+00 5.147215e+00 6.445348e+00 4.496920e+00 2.897234e+00 4.834255e+00 3.295799e+00 1.508186e+00 6.954626e-01 2.227823e-01 3.853122e-01 5.542164e-01 6.173902e-01 6.702015e-01 7.373888e-01 9.595020e-01 7.377707e-01 5.515676e-01 6.575457e-01 5.380626e-01 2.085318e-01
<GCONST> 1.289072e+02
<STATE> 3
<MEAN> 39
 -2.413627e+01 4.772386e+00 -2.975974e+00 -6.116245e+00 -5.248352e+00 -6.421136e+00 -1.664157e+00 -6.149851e+00 -1.709858e+00 -5.005549e+00 -1.616095e+00 -2.472461e+00 7.499998e+01 7.109975e-01 -3.849417e-01 -2.275807e-01 -4.726918e-01 -3.314922e-01 -4.696522e-01 -7.939894e-02 4.773607e-03 -2.144215e-01 -5.728776e-01 -3.637622e-01 -3.261678e-02 3.734337e-01 1.147337e-01 -7.005665e-02 2.398451e-02 -3.895127e-02 6.350707e-02 -1.557767e-02 1.597472e-02 -1.188146e-01 -7.668818e-02 -9.924271e-02 -1.036142e-01 -5.020682e-02 3.761411e-02
<VARIANCE> 39
 6.554246e+01 2.855660e+01 4.375816e+01 5.310569e+01 4.814806e+01 6.160412e+01 3.200786e+01 4.904425e+01 1.879446e+01 4.135123e+01 3.056174e+01 1.625738e+01 1.555296e+01 4.684945e+00 1.403887e+00 2.161890e+00 3.415768e+00 4.711702e+00 4.669443e+00 2.915369e+00 2.517996e+00 1.784359e+00 4.107002e+00 2.759538e+00 1.512660e+00 1.443331e+00 7.200202e-01 1.801983e-01 3.322865e-01 5.139810e-01 9.658567e-01 8.594259e-01 5.083402e-01 3.778442e-01 3.565992e-01 7.142516e-01 4.636932e-01 2.813050e-01 1.497575e-01
<GCONST> 1.197310e+02
<STATE> 4
<MEAN> 39
 -8.728040e+00 -6.169330e+00 -7.924325e+00 -7.544146e+00 -4.251909e+00 -1.031946e+01 -3.463400e+00 -8.500178e+00 -9.173685e+00 -2.039446e+01 -1.017529e+01 -3.991493e+00 7.911664e+01 -1.263683e-01 4.068077e-01 4.315934e-01 5.610286e-01 3.592305e-01 2.026728e-01 -2.166610e-01 -1.212824e-01 -2.070051e-01 1.822703e-01 2.906347e-03 2.281271e-02 -7.749828e-01 -8.460637e-02 1.961646e-02 2.401662e-02 2.143914e-02 -1.810962e-02 3.443076e-02 1.689466e-02 1.166850e-01 1.104891e-01 1.141498e-01 9.057781e-02 3.919050e-02 -8.902180e-02
<VARIANCE> 39
 4.461935e+00 5.531826e+01 3.050204e+01 3.416751e+01 6.856287e+01 4.076676e+01 5.967896e+01 2.974872e+01 3.184277e+01 2.071320e+01 1.282156e+01 1.710522e+01 5.037364e+01 4.929762e-01 1.432487e+00 1.006236e+00 1.044520e+00 1.776471e+00 1.289013e+00 1.214187e+00 1.944071e+00 1.427837e+00 1.648328e+00 8.472032e-01 1.081805e+00 9.472325e-01 6.094955e-02 1.593756e-01 1.694980e-01 1.331480e-01 2.197455e-01 1.927484e-01 2.552274e-01 3.860477e-01 3.296459e-01 2.655196e-01 1.822630e-01 1.940995e-01 6.120259e-02
<GCONST> 9.498219e+01
<TRANSP> 5
 0.000000e+00 1.000000e+00 0.000000e+00 0.000000e+00 0.000000e+00
 0.000000e+00 9.746955e-01 2.530452e-02 0.000000e+00 0.000000e+00
 0.000000e+00 0.000000e+00 9.613726e-01 3.862739e-02 0.000000e+00
 0.000000e+00 0.000000e+00 0.000000e+00 9.657440e-01 3.425597e-02
 0.000000e+00 0.000000e+00 0.000000e+00 0.000000e+00 0.000000e+00
<ENDHMM>
~o
<STREAMINFO> 1 39
<VECSIZE> 39<NULLD><MFCC_D_A_0><DIAGC>
~h "xing1qi1si4"
<BEGINHMM>
<NUMSTATES> 5
<STATE> 2
<MEAN> 39
 -2.019412e+01 7.050703e+00 -5.878025e-01 -8.272525e+00 -5.521193e+00 -8.605815e+00 -2.028419e+00 -1.214041e+01 -4.121077e+00 -5.644908e+00 -4.203688e+00 -5.020631e+00 7.555154e+01 -9.118209e-02 3.046240e-02 2.362822e-03 1.625855e-02 -1.020670e-01 4.707247e-02 -4.906074e-02 -8.188024e-02 -5.011298e-02 -8.165770e-02 -2.576178e-02 -1.588182e-02 2.222093e-01 -3.115963e-02 -3.452048e-02 -8.372509e-03 4.825202e-02 4.291055e-02 6.416584e-02 9.657963e-03 7.491892e-02 3.528621e-02 5.147109e-02 4.152112e-02 2.601249e-02 -5.723086e-02
<VARIANCE> 39
 7.812339e+01 1.277412e+01 4.320310e+01 5.225357e+01 5.431589e+01 4.499800e+01 4.739562e+01 8.989600e+01 5.290651e+01 3.896123e+01 4.659350e+01 4.106237e+01 2.067738e+01 4.535056e+00 1.382156e+00 2.857919e+00 3.765184e+00 3.499611e+00 3.806592e+00 3.304028e+00 5.267507e+00 4.037995e+00 2.911171e+00 3.428681e+00 2.428622e+00 1.659420e+00 4.668289e-01 2.726061e-01 4.230500e-01 5.006991e-01 5.230312e-01 6.084263e-01 5.271102e-01 6.802460e-01 6.929148e-01 5.526599e-01 4.859517e-01 4.181236e-01 2.270561e-01
<GCONST> 1.256078e+02
<STATE> 3
<MEAN> 39
 -2.713203e+01 4.164433e+00 -4.127596e+00 -3.165200e+00 -4.865716e+00 -3.528690e+00 -1.330154e+00 -4.360139e+00 -1.215101e+00 -4.063221e+00 1.556559e+00 -3.718330e+00 7.587837e+01 4.768906e-01 -2.419222e-02 5.140104e-02 -1.318031e-01 -4.484448e-01 -5.978418e-01 -4.550190e-01 -1.699909e-01 -1.466504e-01 -1.999966e-01 -1.037329e-01 8.654281e-02 7.326305e-02 1.696065e-01 3.543954e-03 5.027696e-02 -7.508827e-02 -8.713194e-02 -1.146770e-01 -6.307406e-02 -1.021890e-01 -5.749018e-02 -9.003616e-02 -1.099771e-01 -1.734529e-02 3.003919e-02
<VARIANCE> 39
 4.108912e+01 1.740091e+01 1.142134e+01 2.071448e+01 4.493817e+01 3.800900e+01 4.432501e+01 3.959680e+01 2.046618e+01 2.752840e+01 2.335580e+01 2.510521e+01 8.238879e+00 4.677734e+00 1.127592e+00 1.236629e+00 1.457077e+00 5.182929e+00 4.229128e+00 3.707949e+00 3.916821e+00 2.440531e+00 3.474906e+00 2.152385e+00 2.381356e+00 2.173924e-01 5.820690e-01 1.889899e-01 2.001446e-01 2.268629e-01 8.684978e-01 6.740065e-01 5.332608e-01 6.063933e-01 4.615586e-01 6.145897e-01 3.106744e-01 3.768677e-01 2.685597e-02
<GCONST> 1.097209e+02
<STATE> 4
<MEAN> 39
 -1.072671e+01 2.459369e+00 1.731639e-02 -8.603946e+00 -1.447920e+01 -1.994711e+01 -5.749152e+00 -8.264203e+00 -3.163041e+00 -9.586595e+00 -2.319752e+00 1.412035e+00 7.821825e+01 -1.070990e-01 5.458130e-02 5.895621e-02 9.867807e-02 3.305098e-01 2.061166e-01 4.549706e-01 3.572805e-01 3.849269e-01 2.604935e-01 2.426364e-01 1.433147e-01 -4.994730e-01 -1.455439e-01 -1.587451e-02 -3.968748e-02 1.024111e-01 1.534286e-01 1.635689e-01 8.271691e-02 1.436834e-02 -1.433576e-03 6.149426e-02 7.172962e-02 -2.644079e-02 -1.279538e-01
<VARIANCE> 39
 5.236183e+00 1.227643e+01 8.958088e+00 2.931227e+01 3.846980e+01 2.751473e+01 6.343914e+01 4.539674e+01 3.067615e+01 1.665195e+01 3.916971e+01 4.221271e+01 1.648634e+01 5.709773e-01 6.488005e-01 6.713120e-01 1.032606e+00 1.453335e+00 9.230854e-01 1.052548e+00 9.516822e-01 9.982278e-01 9.851823e-01 9.199014e-01 1.167534e+00 1.325416e+00 1.262834e-01 1.462280e-01 1.176379e-01 2.192717e-01 2.425571e-01 1.504435e-01 2.413008e-01 2.313045e-01 2.025462e-01 1.821187e-01 2.063467e-01 2.763681e-01 9.445802e-02
<GCONST> 8.969328e+01
<TRANSP> 5
 0.000000e+00 1.000000e+00 0.000000e+00 0.000000e+00 0.000000e+00
 0.000000e+00 9.783355e-01 2.166451e-02 0.000000e+00 0.000000e+00
 0.000000e+00 0.000000e+00 9.645919e-01 3.540808e-02 0.000000e+00
 0.000000e+00 0.000000e+00 0.000000e+00 9.532729e-01 4.672710e-02
 0.000000e+00 0.000000e+00 0.000000e+00 0.000000e+00 0.000000e+00
<ENDHMM>
~o
<STREAMINFO> 1 39
<VECSIZE> 39<NULLD><MFCC_D_A_0><DIAGC>
~h "xing1qi1tian1"
<BEGINHMM>
<NUMSTATES> 5
<STATE> 2
<MEAN> 39
 -2.196583e+01 7.984422e+00 -2.832586e+00 -6.878570e+00 -4.800893e+00 -4.661867e+00 -2.032541e+00 -9.489270e+00 -4.831064e+00 -6.450171e+00 -3.305809e+00 -3.348134e+00 7.325522e+01 -9.493428e-02 2.048360e-01 1.545775e-01 -1.629700e-01 -1.938639e-01 -2.781028e-01 -3.302806e-01 -3.364508e-01 -2.387653e-01 -1.367058e-01 -2.163236e-01 -1.145216e-01 3.584016e-01 1.793070e-01 5.041208e-03 1.309058e-01 -2.103031e-02 -7.516603e-02 -7.265969e-02 -1.154833e-01 -8.918012e-02 -2.504678e-02 -4.963238e-02 -9.550392e-02 -3.069246e-02 -8.743722e-02
<VARIANCE> 39
 9.315829e+01 1.760962e+01 2.368187e+01 2.996866e+01 4.194810e+01 3.033153e+01 5.416193e+01 6.419228e+01 6.932861e+01 4.667311e+01 4.537657e+01 1.489323e+01 1.714851e+01 7.735234e+00 2.810389e+00 2.646994e+00 2.864644e+00 4.572420e+00 3.306492e+00 4.601735e+00 6.387502e+00 4.309305e+00 3.689319e+00 3.723135e+00 1.343487e+00 2.231952e+00 8.183972e-01 5.310310e-01 5.101371e-01 4.777583e-01 8.079813e-01 4.642141e-01 6.862280e-01 1.023697e+00 5.738093e-01 7.277275e-01 6.221738e-01 2.423505e-01 2.925844e-01
<GCONST> 1.271947e+02
<STATE> 3
<MEAN> 39
 -2.054386e+01 6.609100e+00 3.363424e+00 -9.735349e+00 -5.797394e+00 -6.326784e+00 -7.819162e+00 -9.573090e+00 -2.367940e+00 -5.209289e+00 -5.054834e+00 -4.436358e+00 7.135971e+01 3.636720e-01 -4.148948e-02 2.655276e-01 -6.137139e-01 -3.471728e-01 4.122891e-02 -3.211793e-01 -2.983694e-02 7.799187e-02 -1.328450e-01 -3.364269e-01 -1.424684e-01 9.853607e-02 -1.282983e-01 -9.276201e-02 -1.325870e-01 4.037328e-02 8.569124e-02 1.153113e-01 1.861469e-01 1.330409e-01 8.542949e-02 5.366030e-02 1.281783e-01 3.591175e-02 4.852854e-02
<VARIANCE> 39
 2.787130e+01 2.607592e+01 2.624512e+01 8.233250e+01 5.831808e+01 3.446427e+01 3.815657e+01 5.082657e+01 3.454110e+01 3.242050e+01 3.476835e+01 2.609287e+01 4.506756e+01 2.759709e+00 2.478992e+00 2.979548e+00 6.978459e+00 7.256038e+00 2.956481e+00 3.814848e+00 4.451110e+00 3.601312e+00 3.029123e+00 3.108163e+00 2.108608e+00 5.336812e+00 3.575766e-01 4.388146e-01 4.726554e-01 1.101673e+00 1.323463e+00 5.160502e-01 8.071124e-01 7.310627e-01 6.948777e-01 5.425946e-01 4.554281e-01 3.447911e-01 8.856055e-01
<GCONST> 1.291975e+02
<STATE> 4
<MEAN> 39
 -1.210971e+01 1.950418e+00 1.395648e+00 -1.541086e+01 -1.353597e+01 -8.538085e+00 -5.235208e+00 -1.030991e+01 -9.114304e+00 -1.288933e+01 -8.119384e+00 -9.993039e+00 7.639528e+01 2.791406e-02 -4.811955e-02 -4.935092e-02 1.024899e+00 4.432473e-01 6.909568e-02 1.918589e-01 1.354279e-02 -1.548202e-01 -1.258164e-01 1.383353e-01 1.492574e-01 -6.496803e-01 -8.203164e-02 -1.797280e-02 -1.773902e-02 6.185355e-02 1.183948e-01 7.146560e-02 1.948749e-02 7.269163e-02 4.561246e-02 1.101183e-01 3.758829e-02 4.089082e-02 -8.646922e-02
<VARIANCE> 39
 6.475847e+00 2.738625e+01 1.866318e+01 7.985567e+01 2.634564e+01 5.078231e+01 4.490200e+01 4.277506e+01 4.001231e+01 3.817480e+01 2.186655e+01 2.056284e+01 4.629992e+01 6.499226e-01 1.276870e+00 1.317758e+00 9.012624e-01 1.475976e+00 1.389764e+00 2.625294e+00 3.166909e+00 1.720645e+00 2.676168e+00 1.799070e+00 1.413110e+00 1.177600e+00 7.683943e-02 1.408773e-01 1.625544e-01 1.439588e-01 2.716649e-01 1.611434e-01 3.551264e-01 5.379249e-01 2.159922e-01 3.732262e-01 3.985772e-01 2.374715e-01 5.860360e-02
<GCONST> 1.008644e+02
<TRANSP> 5
 0.000000e+00 1.000000e+00 0.000000e+00 0.000000e+00 0.000000e+00
 0.000000e+00 9.670218e-01 3.297821e-02 0.000000e+00 0.000000e+00
 0.000000e+00 0.000000e+00 9.592326e-01 4.076743e-02 0.000000e+00
 0.000000e+00 0.000000e+00 0.000000e+00 9.631646e-01 3.683540e-02
 0.000000e+00 0.000000e+00 0.000000e+00 0.000000e+00 0.000000e+00
<ENDHMM>
~o
<STREAMINFO> 1 39
<VECSIZE> 39<NULLD><MFCC_D_A_0><DIAGC>
~h "xing1qi1wu3"
<BEGINHMM>
<NUMSTATES> 5
<STATE> 2
<MEAN> 39
 -2.224394e+01 8.149894e+00 -1.745928e+00 -6.619921e+00 -2.895011e+00 -6.586506e+00 -2.204788e+00 -9.267272e+00 -4.282652e+00 -5.224734e+00 -3.308795e+00 -3.162455e+00 7.428678e+01 8.512416e-02 1.193625e-01 2.244699e-01 -3.011179e-01 -2.033222e-01 -2.105707e-01 -2.467229e-01 -2.531078e-01 -2.406992e-01 -1.353179e-01 -1.929770e-01 -3.181723e-03 3.305083e-01 1.431745e-01 -3.625602e-02 5.726308e-02 -3.822523e-02 -1.044092e-01 -2.485972e-02 -9.917280e-02 -7.064289e-02 -5.388498e-02 -2.483736e-02 -3.836860e-02 -2.834842e-02 -5.541890e-02
<VARIANCE> 39
 9.455151e+01 1.376143e+01 2.841245e+01 4.752371e+01 5.271118e+01 2.710476e+01 6.226326e+01 7.002200e+01 6.322928e+01 3.003610e+01 3.466906e+01 3.245295e+01 2.272107e+01 5.779065e+00 1.281813e+00 2.834160e+00 4.263661e+00 4.463313e+00 2.743687e+00 4.969935e+00 5.314300e+00 4.692556e+00 2.274106e+00 3.958073e+00 2.130937e+00 1.965400e+00 5.114883e-01 2.356452e-01 4.197192e-01 5.540276e-01 6.520273e-01 4.917928e-01 7.035189e-01 7.750447e-01 7.259542e-01 3.859132e-01 7.772944e-01 3.670456e-01 2.512012e-01
<GCONST> 1.256215e+02
<STATE> 3
<MEAN> 39
 -1.207866e+01 3.690263e+00 3.440417e+00 -1.513852e+01 -1.025311e+01 -1.192329e+01 -6.798131e+00 -1.309064e+01 -6.766160e+00 -4.236717e+00 -6.364325e+00 -3.728017e+00 7.427361e+01 6.968524e-01 2.775365e-03 -7.106273e-01 -3.091674e-01 -2.818799e-02 2.223857e-01 1.069991e-01 2.007542e-01 -1.690186e-01 -3.351503e-02 1.589835e-03 6.228549e-02 -2.019173e-01 -1.263914e-01 5.172754e-02 -8.993925e-02 9.983100e-02 1.239536e-01 9.422580e-02 1.323417e-01 1.651830e-01 4.914380e-02 -2.152428e-02 5.682630e-02 5.113963e-02 -3.574954e-02
<VARIANCE> 39
 2.465149e+01 1.853081e+01 5.530801e+01 8.187186e+01 6.644619e+01 5.309311e+01 3.134229e+01 5.470663e+01 3.582459e+01 1.650778e+01 4.041309e+01 2.442636e+01 5.516295e+01 2.027092e+00 1.959101e+00 2.139650e+00 3.864507e+00 6.827569e+00 2.642797e+00 3.098488e+00 2.864977e+00 3.511617e+00 1.887930e+00 1.748285e+00 1.835243e+00 2.157516e+00 3.907310e-01 2.674678e-01 2.915002e-01 6.209839e-01 9.158297e-01 4.865008e-01 6.940616e-01 6.850190e-01 7.787136e-01 4.288133e-01 3.058008e-01 3.329567e-01 2.385248e-01
<GCONST> 1.211824e+02
<STATE> 4
<MEAN> 39
 -3.089578e+00 1.062450e+01 -6.859178e+00 -1.856860e+01 -9.891646e+00 -7.087347e+00 -4.554698e+00 -4.659282e+00 -8.728808e+00 -6.971144e+00 -4.858054e+00 -3.322446e+00 6.995410e+01 -2.017390e-01 -3.417169e-02 1.457238e-01 3.480785e-01 5.574655e-02 1.658686e-01 1.441950e-01 2.293011e-01 2.230541e-01 -1.713184e-02 7.170925e-02 -5.517608e-02 -3.079071e-01 -7.730456e-02 -5.103838e-02 4.510026e-02 8.461361e-02 5.614643e-02 3.551196e-03 2.616392e-03 -2.432639e-02 5.514762e-02 5.539513e-02 4.986347e-02 2.181636e-02 -3.791631e-02
<VARIANCE> 39
 4.831464e+00 1.063812e+01 1.159523e+01 2.711733e+01 3.281004e+01 2.798326e+01 1.252934e+01 2.319731e+01 1.157090e+01 1.265376e+01 1.360670e+01 1.161261e+01 7.356763e+00 3.567716e-01 3.612726e-01 4.142811e-01 7.127295e-01 1.032268e+00 9.898983e-01 7.229612e-01 9.966308e-01 6.883312e-01 8.669064e-01 1.225976e+00 8.108686e-01 2.555871e-01 3.601109e-02 4.705283e-02 7.352579e-02 1.342051e-01 1.202471e-01 1.806285e-01 1.110830e-01 1.840229e-01 1.351146e-01 1.852385e-01 2.436608e-01 2.022274e-01 3.380922e-02
<GCONST> 7.164180e+01
<TRANSP> 5
 0.000000e+00 1.000000e+00 0.000000e+00 0.000000e+00 0.000000e+00
 0.000000e+00 9.742320e-01 2.576806e-02 0.000000e+00 0.000000e+00
 0.000000e+00 0.000000e+00 9.539979e-01 4.600215e-02 0.000000e+00
 0.000000e+00 0.000000e+00 0.000000e+00 9.627593e-01 3.724070e-02
 0.000000e+00 0.000000e+00 0.000000e+00 0.000000e+00 0.000000e+00
<ENDHMM>
~o
<STREAMINFO> 1 39
<VECSIZE> 39<NULLD><MFCC_D_A_0><DIAGC>
~h "xing1qi1yi1"
<BEGINHMM>
<NUMSTATES> 5
<STATE> 2
<MEAN> 39
 -2.235720e+01 8.341095e+00 -1.169796e+00 -5.692058e+00 -4.074066e+00 -7.293478e+00 -3.348483e+00 -1.050322e+01 -4.615289e+00 -4.904272e+00 -3.218511e+00 -4.213619e+00 7.427883e+01 5.844149e-02 1.490679e-01 2.085279e-01 -2.867233e-01 -2.881569e-01 -1.661309e-01 -2.406492e-01 -2.789116e-01 -2.496990e-01 -1.308698e-01 -2.136592e-01 -1.749387e-01 3.018126e-01 1.290345e-01 -1.234912e-02 5.417403e-02 -4.374128e-02 -6.136221e-02 6.311002e-03 -7.198068e-02 -3.696871e-02 -4.128541e-02 -2.166235e-02 -5.888693e-02 -3.099053e-02 -6.639361e-02
<VARIANCE> 39
 1.040743e+02 1.648093e+01 2.772518e+01 3.802724e+01 4.500077e+01 3.705006e+01 6.805923e+01 6.534887e+01 5.107955e+01 4.705106e+01 3.905994e+01 4.031941e+01 2.066427e+01 7.104675e+00 1.455608e+00 2.199075e+00 3.071074e+00 4.236573e+00 3.197925e+00 4.775695e+00 5.436857e+00 4.311759e+00 3.184481e+00 3.235991e+00 2.459583e+00 1.646553e+00 6.955085e-01 2.457265e-01 3.440030e-01 4.206688e-01 5.901420e-01 5.579881e-01 7.439123e-01 8.338732e-01 6.942334e-01 5.239642e-01 4.648126e-01 3.686753e-01 1.929112e-01
<GCONST> 1.256723e+02
<STATE> 3
<MEAN> 39
 -1.609735e+01 7.906426e+00 1.113136e+01 -1.809358e+01 -7.321004e+00 -1.325432e+01 -6.951334e+00 -1.872532e+01 -5.126399e+00 -5.036758e+00 -1.021574e+01 -3.805328e+00 7.363889e+01 2.259896e-01 6.173887e-02 3.536161e-01 -6.341954e-01 -4.836909e-02 3.595915e-01 -3.060397e-01 -2.109679e-03 2.192344e-01 1.167103e-01 -4.592046e-01 6.533051e-02 -1.124806e-01 -2.213378e-01 1.768160e-02 -1.013092e-01 1.502586e-01 1.819912e-01 1.455035e-01 1.209920e-01 2.131849e-01 6.789833e-02 5.931215e-02 1.760484e-01 6.193543e-02 -2.474943e-03
<VARIANCE> 39
 7.415449e+00 1.926343e+01 1.483544e+01 3.033339e+01 3.346551e+01 1.629700e+01 1.601494e+01 4.180622e+01 1.747616e+01 1.168808e+01 3.834847e+01 1.699324e+01 3.465415e+01 8.463387e-01 1.445831e+00 2.427174e+00 4.572899e+00 2.142056e+00 1.736662e+00 1.834358e+00 3.328510e+00 1.320355e+00 1.458054e+00 1.994062e+00 7.799299e-01 1.953747e+00 2.540673e-01 2.777790e-01 5.200552e-01 9.111522e-01 5.862303e-01 4.317484e-01 4.998513e-01 7.917560e-01 3.631285e-01 3.588954e-01 4.480916e-01 1.402499e-01 3.245076e-01
<GCONST> 1.067696e+02
<STATE> 4
<MEAN> 39
 -1.636587e+01 1.216794e+01 9.566607e+00 -1.857492e+01 -9.561712e+00 -1.017348e+01 -1.543876e+01 -1.632993e+01 -7.470032e+00 -7.934901e+00 -1.152267e+01 -6.433644e+00 7.459174e+01 -6.136375e-03 -8.273769e-02 -1.079399e-01 3.663099e-01 2.811230e-01 1.357470e-01 6.998207e-02 1.262081e-01 3.975107e-02 -5.090661e-02 1.614050e-01 1.395701e-01 -3.131594e-01 -2.971266e-02 -5.101808e-02 -3.356207e-02 4.543906e-02 6.566369e-02 1.068516e-02 6.250006e-02 4.178520e-02 5.559429e-02 5.214643e-02 5.958028e-02 4.926053e-02 -2.876751e-02
<VARIANCE> 39
 9.338260e+00 1.445086e+01 1.958874e+01 3.619661e+01 4.385666e+01 2.008771e+01 1.717527e+01 1.586844e+01 2.078514e+01 2.189257e+01 3.014725e+01 4.299704e+01 1.628066e+01 3.322656e-01 3.691957e-01 4.132781e-01 1.145239e+00 1.600648e+00 8.558075e-01 1.039204e+00 9.190821e-01 9.769497e-01 8.182405e-01 1.115271e+00 9.910106e-01 6.178614e-01 5.842650e-02 4.348774e-02 6.769261e-02 1.527865e-01 2.287720e-01 1.370499e-01 1.713209e-01 1.447483e-01 1.868497e-01 1.406081e-01 1.741585e-01 1.814394e-01 6.364217e-02
<GCONST> 8.087508e+01
<TRANSP> 5
 0.000000e+00 1.000000e+00 0.000000e+00 0.000000e+00 0.000000e+00
 0.000000e+00 9.743639e-01 2.563611e-02 0.000000e+00 0.000000e+00
 0.000000e+00 0.000000e+00 8.974241e-01 1.025759e-01 0.000000e+00
 0.000000e+00 0.000000e+00 0.000000e+00 9.738527e-01 2.614732e-02
 0.000000e+00 0.000000e+00 0.000000e+00 0.000000e+00 0.000000e+00
<ENDHMM>
~o
<STREAMINFO> 1 39
<VECSIZE> 39<NULLD><MFCC_D_A_0><DIAGC>
~h "yi1"
<BEGINHMM>
<NUMSTATES> 5
<STATE> 2
<MEAN> 39
 -1.824313e+01 1.214488e+01 9.538870e+00 -1.942924e+01 -1.035320e+01 -1.107809e+01 -1.454130e+01 -1.796245e+01 -7.559478e+00 -6.674577e+00 -7.398452e+00 -6.399590e+00 7.716415e+01 1.092157e-01 4.496093e-01 8.533915e-01 -2.528955e+00 -7.997637e-01 -2.795810e-01 -7.990070e-01 -1.333678e+00 -1.218546e+00 -9.474536e-01 -1.569942e+00 -4.366210e-01 2.601383e+00 1.442969e-02 -4.514033e-01 -5.223897e-01 8.978801e-01 4.940822e-01 4.772039e-01 4.844580e-01 6.913651e-01 2.223039e-01 8.293568e-02 4.392809e-02 1.828253e-01 -7.856790e-01
<VARIANCE> 39
 7.653890e+00 2.660836e+01 3.091962e+01 5.335543e+01 6.075139e+01 3.577216e+01 1.932908e+01 3.196737e+01 1.304891e+01 2.846958e+01 6.777964e+01 1.020990e+02 2.373366e+01 9.049618e-01 1.541126e+00 2.717897e+00 5.827164e+00 4.116089e+00 2.907441e+00 2.077653e+00 3.878382e+00 1.035149e+00 2.842568e+00 3.746780e+00 4.130775e+00 4.257520e+00 2.091374e-01 3.115989e-01 2.006410e-01 4.616075e-01 7.978815e-01 3.825694e-01 5.058903e-01 3.540388e-01 1.741507e-01 4.579329e-01 6.615547e-01 7.608616e-01 3.543542e-01
<GCONST> 1.171008e+02
<STATE> 3
<MEAN> 39
 -1.694147e+01 1.147645e+01 9.470307e+00 -2.162539e+01 -8.522532e+00 -1.025667e+01 -1.501441e+01 -1.808516e+01 -9.130870e+00 -7.674129e+00 -1.390970e+01 -4.749065e+00 7.962452e+01 9.193646e-02 2.272019e-02 -4.087551e-02 1.761533e-01 6.915143e-03 6.207808e-02 2.744963e-02 1.849776e-01 1.557251e-02 5.118831e-03 -2.981592e-02 -1.847031e-02 -1.547496e-01 1.564218e-02 3.981119e-03 1.923641e-02 5.993108e-02 -1.838946e-02 -1.449272e-02 -1.644881e-02 2.542067e-03 9.572982e-03 1.388111e-02 8.226032e-02 1.234091e-02 -6.418023e-02
<VARIANCE> 39
 6.048073e+00 1.469043e+01 3.650509e+01 2.215695e+01 1.869251e+01 3.070352e+01 1.072485e+01 4.246237e+01 2.452321e+01 3.399835e+01 3.979082e+01 3.694921e+01 1.950542e+00 2.508548e-01 1.554298e-01 3.692094e-01 3.991901e-01 3.616079e-01 3.907331e-01 3.749354e-01 5.180670e-01 6.166116e-01 7.104152e-01 6.361774e-01 4.528129e-01 1.194725e-01 4.060246e-02 2.402879e-02 6.392402e-02 6.850871e-02 5.192238e-02 5.050780e-02 8.376199e-02 8.290400e-02 1.132523e-01 1.477218e-01 1.540838e-01 7.487654e-02 1.678793e-02
<GCONST> 6.115468e+01
<STATE> 4
<MEAN> 39
 -1.560996e+01 1.284957e+01 6.081155e+00 -1.163609e+01 -9.060740e+00 -9.632106e+00 -1.741709e+01 -1.355871e+01 -1.021516e+01 -1.008658e+01 -1.033978e+01 -4.676027e+00 7.137595e+01 -3.478013e-02 -6.241317e-01 -4.224595e-01 1.287334e+00 5.751626e-01 4.469928e-01 6.737520e-01 6.056522e-01 4.978758e-01 1.529864e-01 7.417164e-01 2.781514e-01 -1.350081e+00 -1.105100e-01 -1.339797e-01 -1.022188e-01 6.901655e-02 1.759426e-01 1.714240e-01 3.596738e-01 1.538932e-01 2.047383e-01 2.034848e-01 9.503227e-02 4.623831e-02 -5.171571e-02
<VARIANCE> 39
 9.682302e+00 3.025733e+01 2.263168e+01 5.389888e+01 2.359612e+01 3.123324e+01 6.251506e+01 1.763109e+01 2.452662e+01 1.666370e+01 1.643652e+01 2.393635e+01 1.834484e+01 7.671859e-01 1.169394e+00 7.851453e-01 2.563441e+00 2.449392e+00 1.994448e+00 5.266799e+00 3.122418e+00 3.485467e+00 2.489436e+00 1.897883e+00 1.153231e+00 3.613196e-01 8.445365e-02 8.985921e-02 1.244023e-01 3.447815e-01 3.431299e-01 2.706451e-01 5.281960e-01 3.985643e-01 5.176220e-01 3.503496e-01 2.552708e-01 2.018970e-01 3.702585e-02
<GCONST> 9.993793e+01
<TRANSP> 5
 0.000000e+00 1.000000e+00 0.000000e+00 0.000000e+00 0.000000e+00
 0.000000e+00 7.987677e-01 2.012323e-01 0.000000e+00 0.000000e+00
 0.000000e+00 0.000000e+00 9.505849e-01 4.941504e-02 0.000000e+00
 0.000000e+00 0.000000e+00 0.000000e+00 8.999391e-01 1.000609e-01
 0.000000e+00 0.000000e+00 0.000000e+00 0.000000e+00 0.000000e+00
<ENDHMM>
